534 100
zero 0.004003 0.004419 -0.003830 -0.003278 0.001367 0.003021 0.000941 0.000211 -0.003604 0.002218 -0.004356 0.001250 -0.000751 -0.000957 -0.003316 -0.001882 0.002579 0.003025 0.002969 0.001597 0.001545 -0.003803 -0.004096 0.004970 0.003801 0.003090 -0.000604 0.004016 -0.000495 0.000735 -0.000149 -0.002983 0.001312 -0.001337 -0.003825 0.004754 0.004379 -0.001095 -0.000226 0.000509 -0.003638 -0.004007 0.004555 0.000063 -0.002582 -0.003042 -0.003076 0.001697 0.000201 0.001331 -0.004214 -0.003808 -0.000130 0.001144 0.002550 -0.003170 0.004080 0.000927 0.001120 -0.000608 0.002986 -0.002288 -0.002097 0.002158 -0.000753 0.001031 0.001805 -0.004089 -0.001983 0.002914 0.004232 0.003932 -0.003047 -0.002108 -0.000909 0.002001 -0.003788 0.002998 0.002788 -0.001599 -0.001552 -0.002238 0.004229 0.003912 -0.001180 0.004215 0.004820 0.001815 0.004983 -0.003111 -0.001532 -0.002107 -0.002907 0.002815 0.001579 0.000425 -0.002194 0.001524 0.003059 0.000194 
first -0.674354 -0.477248 -0.045806 0.173157 0.015925 0.079639 -0.151448 -0.684949 -0.424534 -0.089336 0.061188 0.391349 -0.100057 0.214324 0.383353 -0.115051 0.208652 -0.675197 -0.252906 0.117478 -0.741611 -0.019088 0.138420 -0.106428 -0.168484 0.022987 0.339836 0.002273 -0.592795 -0.361167 0.252278 0.002466 -0.527137 0.123057 0.207059 0.081569 0.502217 0.178529 0.130516 -0.634321 0.513951 -0.147810 0.313534 -0.385555 -0.069226 -0.083804 0.203146 0.338149 0.311120 0.046828 -0.712278 0.031072 -0.088413 -0.261226 0.476031 -0.300978 -0.054878 0.147810 0.770397 0.592212 -0.179414 0.256687 -0.003425 0.260481 -0.018375 0.020301 0.283498 -0.188470 0.401373 0.078323 -0.065074 0.091666 0.149589 -0.354596 0.095329 -0.531538 -0.119598 -0.002860 -0.230843 -0.340814 -0.052474 0.647401 -0.219207 0.283716 -0.167074 -0.028120 0.224963 -0.051771 0.242712 0.009372 -0.140906 0.342434 0.041773 0.232619 -0.518650 0.414488 0.165461 0.053233 0.397165 0.348052 
can 0.304863 0.226546 0.415244 -0.522668 0.112618 -1.081841 0.308390 0.075124 0.889520 0.731708 -0.641840 0.320508 -0.051847 0.144450 -0.671211 -0.209664 -0.143460 0.942927 0.193716 0.164574 -0.112762 -0.704923 -0.902562 0.659735 0.897359 0.249134 -0.988729 0.774923 0.146813 0.594339 -0.707736 0.682246 -0.150641 -0.140228 0.373550 0.260629 0.113237 -0.141270 0.542377 1.355327 -1.082909 0.667435 -0.284032 -1.442999 -1.123530 0.539950 0.723806 0.487721 1.470104 -0.430599 0.424605 0.182240 0.836076 -0.850622 -0.249173 0.485427 -0.852389 0.555128 -0.331131 -1.374710 0.444414 -0.659265 -0.046263 0.066855 0.513096 -0.451088 -0.330071 -0.327669 0.252431 0.523722 0.483842 0.032832 0.182977 -0.788423 -1.063331 0.289844 0.673551 0.327188 -0.072851 0.217622 -0.630744 0.560485 0.158044 -0.220577 0.713393 -0.819231 0.021040 -0.962348 0.463377 -0.574991 -0.043045 0.617364 0.851811 -0.193886 0.001312 -0.968801 -0.047159 0.619825 -0.274913 1.253253 
time -0.442513 0.520778 0.902787 -0.201409 -0.048337 -0.587506 -0.396414 -0.282477 0.218600 0.231540 -0.109729 0.054331 0.061785 0.688278 -0.692569 -0.029888 0.880919 0.509059 -0.023857 0.240315 -0.617869 -0.203241 -0.216730 -0.168080 0.068521 -0.565090 0.004333 -0.239193 -0.506271 -0.243040 0.823802 0.543379 -0.765968 -0.090822 -0.239210 0.358193 0.002434 0.681268 -0.056683 -0.036658 0.336650 0.329171 -0.088427 -0.654342 0.227767 -0.368953 0.267904 0.724265 0.557606 0.182866 -0.421360 0.209138 -0.088888 -0.653283 -0.237246 0.055654 -0.505763 0.190682 0.073620 0.269905 0.793446 -0.159826 0.117292 0.077227 -0.225567 0.152218 -0.307569 -0.625128 -0.292238 -0.301908 0.166425 0.607461 0.198223 -0.399349 -0.136586 -0.281035 0.279018 0.121586 -0.285594 0.477147 -0.027995 0.131210 -0.294362 0.517510 -0.040207 -0.558189 0.294402 -0.471158 0.189705 -0.648093 -0.359753 -0.135034 -0.462350 0.464534 -0.247277 -0.343428 -0.264818 0.757577 -0.797291 0.319930 
world -0.294284 -0.026464 -0.201081 -0.102383 -0.224130 0.226713 -0.219033 -0.016556 -0.039250 -0.113153 0.319266 0.105313 -0.027554 -0.512367 -0.322938 0.931103 0.095943 -0.955699 0.550116 0.563031 -0.142464 -0.127719 0.088034 -0.892836 0.495931 -0.940942 -0.067994 -0.610596 0.804323 -0.090991 0.243004 0.848424 -0.126403 0.630154 -0.181415 0.191739 -0.181849 0.335697 -0.346165 -0.373517 -0.037065 0.206508 0.310860 -0.797102 -0.105007 -0.156561 -0.261549 0.064883 -0.518819 0.348358 -0.971456 0.276941 0.424449 0.791810 -0.643833 0.024446 0.244081 -0.065712 0.525904 0.111526 -0.441736 0.492014 0.478349 0.320779 0.202527 0.346256 0.270871 -0.003898 0.291798 1.287745 0.260062 -0.445394 -0.200139 0.525403 0.208171 -0.182541 -0.574712 0.501219 0.734415 -0.090394 -0.587158 -0.272330 -0.435967 0.286055 0.181315 0.300581 0.705377 -0.486586 -0.170878 -0.106612 0.447029 0.211998 -0.527851 0.304496 -0.093717 -0.681251 -0.051764 0.189231 -0.346242 0.085968 
state -0.628986 -0.210827 0.438837 -0.652655 0.994878 0.254745 -1.035946 1.056254 1.942153 0.611950 -0.815188 0.447255 -0.317593 -0.175219 0.105950 -0.045164 1.159228 -0.356422 0.638940 -0.548213 -0.239357 0.840543 1.370072 -0.254018 1.819949 -0.027926 -1.473807 -0.551894 0.019728 1.684890 0.097514 1.467106 0.854098 0.162542 -0.264625 -0.320744 -0.301918 0.803181 0.864640 -1.137878 0.333099 0.564006 0.182107 0.197538 0.430752 1.067626 0.371223 -0.009377 -0.425929 -0.540557 0.279885 -0.123953 -0.443040 -0.666452 -0.293324 0.050537 1.054533 -0.178384 -0.397077 0.131363 -0.114088 0.581213 -0.887267 0.459043 0.153016 -0.454539 1.046306 -0.049355 -0.454995 -0.078646 -0.184359 -0.227263 -0.952650 -1.076303 0.609835 -1.110415 -0.134530 -0.197466 -0.071820 -0.235791 0.246139 0.510001 2.081876 -0.354746 1.032488 0.782268 -0.258745 -0.303381 0.784684 -0.244666 -1.005318 0.371539 -0.973406 0.005087 0.368735 -1.193937 0.445411 0.941797 -0.592791 1.035141 
will -0.040392 0.156665 1.002407 -1.051891 0.609349 -1.598476 -0.461595 0.995171 1.270908 0.368963 -0.330217 1.273813 0.626159 -0.065860 -1.122437 0.160376 1.079209 1.013378 -0.119555 -0.083835 0.117365 0.546662 -0.142912 0.187719 0.140445 0.288743 -0.159260 0.213498 0.004024 1.199535 -1.495713 1.283394 0.460832 0.284060 0.495446 1.070734 -0.039277 -0.730334 -0.768509 0.771793 -0.915872 0.195467 -0.744167 -1.495040 -0.385067 0.313881 0.905167 -0.279974 1.064641 0.305841 0.612000 0.872097 1.241692 -0.988805 -0.679063 -0.385292 -0.095580 0.458082 0.191801 0.086281 0.872707 0.448122 1.156159 -0.854865 0.600362 0.001920 -0.897750 -1.131346 -0.368074 0.703180 -0.275599 1.133957 0.685742 -0.923432 -0.864889 0.542918 0.866719 0.832611 -0.290087 0.432926 -0.407332 -0.944874 0.430115 -0.004814 0.266772 -1.228518 0.258428 -1.073498 0.293935 -0.110739 0.014925 0.586148 0.989045 -0.668573 -0.098886 -1.050076 -0.512393 1.164330 -0.432014 1.383714 
century -0.090742 -0.410413 -0.020454 0.641792 0.251758 1.105124 0.337694 -1.809016 0.203084 0.351212 0.080141 -0.572442 0.278925 -0.176921 0.045313 -0.478066 0.407278 -0.361195 0.056134 -0.511935 -0.806549 -0.128100 0.075268 0.205039 -0.295222 0.002715 1.181969 0.233973 0.832672 -1.349230 1.105517 1.442062 -0.084240 0.543218 -0.570744 -1.039731 0.786319 -0.054093 -0.045233 0.217423 0.397010 0.406065 -0.485267 0.275557 0.980620 0.287144 0.135505 -0.710600 0.681066 -0.560861 -1.202507 -0.163469 -1.091024 -1.379286 -0.440312 -0.866471 -0.357000 0.090946 0.533582 0.645287 -0.292720 0.407450 -0.144735 1.163873 -0.118966 0.507818 -0.200146 -0.578749 0.027079 0.283858 0.199039 0.273755 -0.973987 -0.513595 0.271842 0.012026 -0.587884 -0.049135 0.765608 -0.703813 0.489221 -0.013318 0.509830 0.158394 0.343268 1.386641 0.735483 -0.700048 0.853430 0.574767 0.550258 0.512401 -0.311259 1.366344 0.280203 -0.856047 -0.590836 -0.185991 -0.358909 -0.236861 
through 0.010945 0.032781 0.132375 0.223441 0.387776 -0.162990 -0.050814 -0.252351 1.155543 0.039756 -0.499609 0.424358 0.304025 0.160092 -0.366378 -0.286630 -0.117733 0.248287 -0.066528 -0.185850 -0.191411 0.050917 -0.079465 -0.437632 0.191356 -0.359856 -0.352863 0.178106 0.410059 -0.410180 -0.561643 0.710449 -0.192657 0.193565 -0.206313 -0.077054 0.410096 -0.327672 0.485262 0.435784 -0.179288 0.033448 0.565830 -0.519403 -0.056762 0.018702 0.733507 -0.070217 0.174287 0.265283 -0.641533 0.504125 0.301216 -0.894921 -0.362193 0.470178 -0.362153 0.382343 0.626621 -0.401806 0.432687 -0.018749 0.857499 -0.070276 0.748498 -0.379675 -0.023263 -0.647927 -0.011287 -0.181034 0.589970 -0.567954 -0.327009 -0.065138 -1.047556 -0.206422 -0.159381 -0.130770 -0.148448 0.616140 -0.786615 0.353700 0.389495 0.267770 0.214607 0.310038 0.277238 -0.213448 -0.177859 -0.059830 0.235309 0.838792 0.034384 0.458469 0.255515 -0.567364 -0.357392 0.740411 0.080939 0.267065 
day -0.939389 0.223129 1.053439 -0.214639 0.045823 0.627805 -0.755130 0.459999 1.104952 0.331713 0.534676 -0.239714 0.046461 -0.362198 -1.222656 0.163032 0.325932 -0.724885 -0.128040 -0.866712 -0.171282 0.259302 0.421073 -0.524097 0.518852 0.150877 0.686431 0.483472 0.412881 -0.929390 -0.321838 0.367547 0.512420 1.250457 0.781995 -0.968487 0.382764 0.164030 -0.134092 -0.487518 -0.115124 0.934880 0.983058 1.167617 -0.547436 -0.557740 -0.466919 0.753760 0.140489 -0.679505 -1.485807 -0.320329 -0.509106 0.057081 1.149714 0.106410 -0.450141 0.492896 0.595776 0.737775 -0.077251 0.360303 0.251159 -0.896597 -0.434521 0.715043 0.364428 -0.443450 -0.776086 -0.682550 -0.146562 -0.319134 -0.173890 0.075147 0.727228 1.415311 0.089729 0.387148 -1.023214 -1.446657 1.266879 -0.521978 -0.354289 0.842915 0.157336 -0.486880 0.121158 0.540026 0.380995 -0.509164 -0.372042 -0.565879 -0.294370 -0.055640 -0.503147 1.055752 -0.490396 -0.646895 0.517751 -0.226255 
music 0.034120 -0.307126 0.895045 0.945408 -0.149854 1.125146 0.423721 -1.231391 1.125787 -0.629085 -0.217205 -1.474585 -0.936637 -0.696347 -0.878502 -1.058412 1.630541 0.276605 -0.461513 0.741501 -0.914367 -1.169113 -0.890830 0.550528 -0.518547 0.055031 -0.154832 -0.296378 -0.535668 0.614970 0.569978 -0.191236 -0.264335 -0.456418 -0.881919 0.203870 1.450911 0.265489 1.018694 0.747150 -0.099319 -0.600329 0.450738 -0.522900 0.238704 1.469546 -0.323841 -0.344749 0.241665 1.307027 0.378675 -0.644465 -0.995707 1.292530 0.405423 -0.228292 -1.350097 -0.809329 -0.735512 0.233580 -1.719155 -0.510873 0.284409 -0.679272 -1.105163 -0.117026 0.094171 0.782371 0.071448 0.168385 0.044960 0.707774 0.939187 0.197945 -1.832953 -1.057401 -0.271772 -0.268307 -0.124252 -1.316341 1.004860 -0.127948 -1.324539 0.977964 0.438285 0.657253 0.148382 -0.403382 1.552575 -0.822664 0.691354 0.316813 -0.333878 0.170022 -0.605613 0.344604 0.045918 -0.411046 0.503829 -0.499648 
modern 0.287737 -0.475997 0.087710 -0.028222 0.369256 0.543742 -0.259058 -0.314764 0.455660 0.262147 -0.007482 -1.148360 0.223166 0.314400 0.140583 -0.036884 -0.147570 -0.473971 0.324818 0.372956 -0.300490 -0.660292 -0.195964 -0.252961 0.098020 0.073038 0.764111 0.230853 1.007940 -1.201862 0.421293 0.735787 -0.190715 0.047714 -0.268372 -1.358118 -0.384682 0.288691 0.551681 0.287520 -0.044301 0.809323 -0.478827 -0.374277 0.304525 0.786089 0.424413 0.479186 1.020800 -1.263947 -1.385702 -0.649920 -0.515086 -0.474978 -0.012308 0.094686 -1.175963 0.324010 0.713090 0.055490 -0.149230 0.868991 0.029762 0.051912 -0.653110 0.196518 0.052512 -0.764926 -0.170868 0.561380 0.713016 -0.042838 -0.688868 -0.289321 -0.014411 0.303636 -0.161686 0.332623 0.324287 -1.016141 -0.242524 -0.025671 -0.216416 0.904574 -0.282299 0.072085 0.302093 -1.043315 1.515107 0.508168 0.921064 1.394114 -0.339191 0.890822 -0.447519 -0.964543 -0.860576 0.244079 -0.137144 0.352618 
set 0.759102 -0.261375 -0.332127 0.283506 -0.324306 0.078077 0.601201 -0.938181 -0.700223 0.267278 0.554704 -0.764570 -0.300262 0.575883 -1.144982 -0.215024 0.438774 0.444073 0.707854 -0.188491 -1.049659 -1.108090 -0.872898 -0.157501 0.974756 0.173193 -0.289718 0.510675 -1.220545 1.050990 0.569378 0.031966 0.331376 -0.288083 0.959237 -0.061969 -0.271818 -1.103423 -0.196041 -0.044381 -0.267140 0.538238 0.061895 -1.767713 -1.031697 0.677770 1.240322 0.259331 1.140558 -0.346694 0.987860 -0.814751 0.427267 -0.319907 1.186557 -0.061780 -1.229639 -0.249507 1.083770 0.556792 0.295364 -0.369566 0.173516 -0.124722 0.778068 0.064110 0.469804 -0.746582 1.125557 0.002155 0.317198 0.975639 1.224960 -0.370052 -0.113215 0.031049 -0.915002 0.468985 -0.051242 -0.132377 0.097472 -0.237299 -0.034440 -0.953484 0.462699 -1.001231 0.856825 -0.924818 0.275383 -0.097769 -0.545970 1.490998 -0.413093 -1.175124 0.604282 -0.795236 -0.116319 0.837105 -0.953425 0.972334 
game 0.202318 0.533905 -0.440989 -1.039981 0.101750 -0.250213 -0.281088 -1.090884 -1.229384 -1.106504 0.514053 0.634487 -0.321365 1.302994 -0.182331 0.607863 0.445722 -0.434130 -0.836117 0.869513 -0.663620 -0.632600 -0.133472 0.438680 0.023215 0.403763 -1.143095 -0.592596 -0.780160 -0.539369 0.188263 -0.600059 -0.818398 -0.247163 0.903701 1.920897 -0.831047 -0.866639 0.769192 0.097127 0.025232 -1.639066 0.623176 -0.718665 0.442658 0.727060 1.347075 1.112639 0.480353 -0.491323 -0.232523 1.605364 1.126613 -0.394704 0.021352 1.015935 -0.452559 0.838622 0.906582 -0.505857 -1.054368 -0.002338 0.535322 -1.345072 0.746672 -0.988636 -0.139778 0.983998 1.183886 1.064093 0.945064 0.281244 1.699630 0.437908 0.698460 1.256269 0.151675 0.210770 -1.362889 0.992629 -0.271366 -0.011204 -0.732345 -0.172124 -1.527340 -0.149790 -0.716813 0.348628 1.494595 -0.116670 -0.642391 1.253584 1.313386 -1.117777 0.726386 -0.882168 1.268607 -0.380432 0.366707 -0.968902 
king 0.654242 0.009537 0.594865 -0.376862 0.471105 0.846755 -0.596556 -0.469152 -1.404694 -0.931795 0.632834 0.349938 -0.199274 0.060599 -0.591128 0.145159 -0.774989 1.038403 0.250552 -0.106814 -1.167259 1.157879 1.032825 -0.218368 -0.665592 0.627728 2.258983 1.005365 -1.281313 0.311694 0.256412 0.551455 0.430468 -1.109342 -0.380699 -1.120661 -0.327384 -0.894640 0.676865 -0.744385 1.244447 0.068396 -1.274532 0.893415 0.797734 -0.367128 1.011507 -0.254543 -0.113905 -0.745075 -1.169342 1.058290 -0.959299 -1.565390 -0.327733 -0.581108 1.757629 -0.650954 0.262626 1.424542 1.253745 0.561673 1.743440 -0.678274 0.244807 0.088374 0.123411 -0.815709 -0.259040 -0.358055 0.625965 -0.458437 -0.911365 -1.210740 0.602090 -0.474767 -0.087103 1.083224 -0.551736 -0.636203 0.579805 -0.423062 0.983241 1.512737 0.957462 1.220755 0.372696 -0.112264 -0.066549 0.420475 -0.169887 -0.389426 -0.869760 0.983431 -0.740685 0.256003 -0.262917 -0.778736 -0.506206 -0.392027 
law -0.619076 -0.629785 -0.024506 -0.795245 0.575850 -0.741782 0.335892 0.682197 1.717559 2.064155 0.103212 0.662891 -0.634706 0.484645 -0.685026 0.620691 0.212131 0.147804 2.089553 0.152403 -0.753866 -0.098085 -0.348576 -0.089132 0.443085 -0.931593 -0.330643 -0.531769 -0.312939 0.946988 -0.860463 1.676388 0.472725 0.917585 -0.307659 -0.276946 -0.788600 0.680618 0.676458 -0.544166 2.031776 -0.051447 0.040487 -0.600629 0.835754 0.440716 0.348398 -0.426815 1.255834 -0.252617 0.767280 0.756019 0.016607 -1.233624 0.122062 0.220025 -0.579462 0.701376 0.443038 -0.035003 0.830957 0.173071 0.092545 0.322184 0.025234 0.553889 -0.364923 -0.795587 -0.029848 -0.761664 1.317172 -1.331270 0.298517 -1.744706 1.281144 -1.082055 0.140149 0.589376 0.305197 0.229817 -0.187968 -0.425919 1.535930 -0.409414 0.676294 -0.717807 -0.567416 -0.021324 1.410034 -0.128014 -2.326980 -0.245850 0.516203 1.749178 -0.572852 -1.015738 -0.110787 -0.175623 0.304444 0.164077 
book -0.672974 0.008891 -0.442447 -0.057140 0.680580 -0.303571 0.620574 0.129914 -0.555148 0.675756 0.185292 -0.021170 0.766198 0.572031 -0.573341 -0.502276 -0.251592 0.509904 0.486230 1.041224 -0.098437 0.379700 -0.770824 -0.705132 0.748609 -0.127199 -0.214801 0.605738 -0.307451 -0.777537 0.714864 0.392151 0.668966 0.285336 0.830328 -1.208954 1.022806 -0.931853 0.393634 0.279230 1.041656 0.615391 -0.416071 -0.564266 1.657237 -0.130060 -0.042879 -0.562253 0.519594 -0.481289 -1.202854 0.470901 -0.054907 -0.902340 -0.364290 -0.808150 0.350630 -0.486196 0.795594 1.288074 0.450710 -0.297814 -0.025099 -0.799744 0.533003 1.527422 -1.026327 -1.201066 0.496041 0.266800 -0.236506 -0.302795 0.170402 1.066108 -0.390234 0.105036 0.044391 0.711613 -1.051525 -0.950735 -0.816537 1.449392 -0.291047 1.058525 0.576370 -0.300384 1.916541 -1.048012 0.116401 1.109190 0.813111 -0.008178 -0.000763 0.086704 -1.734577 -0.376041 0.766952 0.232552 0.420357 -0.848512 
party -0.964537 0.032080 -0.100875 -0.744712 -0.630682 0.962073 -0.017612 0.839648 0.841530 2.019387 0.033461 1.043053 0.090267 -0.515510 0.793966 0.479851 0.515988 0.867751 -0.555990 0.128553 -1.040179 0.826800 0.219138 -1.584867 0.281716 -1.147289 -0.692491 -1.472548 -0.344572 2.343562 -0.031971 0.995251 -0.720550 0.760434 0.347368 0.333796 -0.701635 0.655368 -0.440043 -0.272334 1.220984 -0.082951 -0.876686 0.076228 0.002936 -0.305361 0.096789 1.266225 -0.500898 0.305391 1.206445 -0.617693 0.118525 0.020431 1.206675 -0.527924 0.357815 0.582902 0.201501 0.205943 0.873304 1.141447 0.642770 0.094363 -0.619792 0.152658 -0.605493 -0.584422 1.265251 -0.047847 -1.027073 -1.280236 -0.812638 -1.358510 0.525364 0.207183 -0.583070 -1.161355 -0.102665 -0.131154 -1.067727 0.962563 -0.131559 -0.125957 1.399570 0.601765 -0.504060 0.523701 0.557439 0.073541 -1.283896 -0.143898 -1.363311 -0.463533 0.604506 0.209489 -0.039525 -0.174527 -0.658923 1.483330 
church -0.933110 0.144965 1.049970 -1.968296 -0.808057 1.515846 1.314394 -1.254368 1.643792 1.427293 -0.220784 -0.759863 -0.186608 -0.049288 -0.676994 0.535310 0.979618 0.651453 0.613463 -1.090171 -0.393641 0.468192 0.295961 -1.350729 0.570327 -0.594454 0.640039 0.910252 0.013574 0.469175 -0.711764 1.403362 1.274031 1.572110 -0.135735 0.041038 1.419810 -0.060050 0.443956 0.554278 0.050597 0.798982 0.455256 0.004693 2.401405 -0.512184 1.190612 -0.502572 0.446359 0.449337 -0.855134 -0.810752 -1.427662 -1.729741 -0.769728 -0.859954 0.305720 0.082877 1.821477 0.480638 -0.282637 1.110512 0.593244 0.325412 1.093982 1.174983 1.223445 -1.360926 -0.258461 -0.980464 -1.439010 1.120898 -0.107506 -1.093611 -0.423203 0.523567 -0.583233 1.225661 -0.896697 -1.336004 -0.202852 -0.255093 0.209541 0.988128 -0.164026 -0.355516 1.005642 -0.691981 0.435796 -0.349510 0.067528 -0.684063 0.215511 1.053453 -0.714159 0.348682 0.173382 -0.844532 0.089958 0.229390 
population 0.576738 -0.108998 -0.089878 -0.080867 0.082080 0.829904 0.109018 -0.278386 1.302152 0.246626 -0.181870 0.216268 0.547496 -0.498876 -0.261339 0.132173 1.418772 0.643381 -0.188440 -0.619355 -0.435291 0.521860 0.568044 -0.020367 0.874664 -0.568811 0.354435 -0.720864 1.127395 0.033685 0.303171 0.643382 -0.559012 1.071206 0.273147 0.262090 -0.538156 0.030777 -0.404409 -0.267717 -1.219164 0.886860 -0.361987 0.287782 -0.100664 0.098165 -0.251648 -0.471867 0.852710 0.371548 -0.434957 -1.168706 0.522663 -0.566783 -0.824527 -1.006321 0.599245 0.899375 -0.365399 0.302050 -0.694879 -0.693065 -0.627355 0.362962 -0.568508 0.633272 1.172662 -0.236092 0.756842 0.018162 0.135600 -0.882618 0.016888 0.179094 -0.061254 0.391883 -0.208357 -0.551197 0.799317 -0.129578 -0.084162 -0.091667 1.863326 -0.017473 0.397336 1.768331 0.687360 0.484698 0.062523 0.678883 -0.376236 -0.400777 -0.594476 0.751315 0.535384 -0.636866 -0.335674 0.466781 -0.608210 0.331628 
point 0.390260 0.780839 0.350672 -0.077472 0.628165 -0.767303 0.076049 -0.404738 -0.280817 0.401253 0.343757 0.364422 -0.213316 0.868974 -0.548892 -0.478917 0.716578 0.420890 -0.638145 -0.571327 0.938771 -0.645877 0.068433 0.486304 0.164335 -0.603422 -0.927226 -0.529579 -0.058218 0.796620 -0.533075 0.249453 -0.067739 0.935761 -0.193977 0.735988 0.347225 -1.313209 0.710260 1.029662 0.574421 1.117384 -0.214156 -0.884688 -0.283801 -0.431350 1.196902 0.712024 0.478465 -0.208747 0.280517 0.582640 0.121517 -0.668160 -0.557778 0.501557 -0.065990 0.679179 -0.278820 -0.413048 0.358081 0.575232 0.747758 0.343584 0.871835 -0.490581 -0.382260 -0.873619 0.378074 0.308148 0.642063 0.997618 0.211458 0.690717 0.253767 -0.239150 -0.406641 -0.481703 -1.432862 -0.001526 -0.718440 0.294660 0.028702 -0.522500 0.412275 -0.333261 -0.333813 -0.405482 0.354764 0.288916 0.233375 0.900176 0.553790 0.197538 0.001809 -0.699096 -0.571889 1.413394 -0.493128 0.919999 
computer 0.167749 -0.322523 -0.420537 -0.955494 0.187930 0.190404 0.432263 0.183862 -0.802913 1.625962 -1.054490 0.135838 -0.565545 0.213921 -0.546789 0.863467 0.256810 0.286321 -0.542279 1.963242 -0.215819 -0.817851 -1.093756 0.310824 0.642697 0.342874 -1.422627 0.318109 -1.461946 -0.477597 1.100072 -0.365325 -0.189401 -1.480379 0.292085 0.597892 0.943136 -0.947727 -0.117541 0.260597 -0.270325 -0.794639 0.439086 -1.519257 -0.862328 0.994558 -0.341019 1.235326 1.729585 0.480291 -0.372138 0.665838 -0.110310 -0.351541 -0.532966 1.577169 -0.720632 1.371361 0.941663 -1.122777 -0.918315 1.045869 -0.451210 -0.413244 0.403301 0.159504 0.968723 0.249456 1.341078 1.088948 0.352942 0.849130 0.589248 0.304019 -2.230710 -0.296482 0.628317 0.221033 -0.680251 -0.094772 0.144973 1.864909 -1.036484 0.434580 -0.716205 -0.133373 -0.841695 -0.974062 0.943911 -1.009099 -1.187968 0.487089 1.159978 0.114191 0.325596 -1.702712 1.211851 0.022112 0.011367 0.887862 
old -0.227074 0.265549 -0.213670 -0.908756 0.312888 0.931683 0.158727 -1.383567 0.066620 0.185889 -0.131502 -0.064372 0.232675 0.208077 -0.591114 0.661682 -1.521136 0.858059 -0.010141 0.756103 -0.380117 -0.270798 0.239844 -0.310508 -0.392454 0.793931 0.106388 0.735788 0.851071 -0.464101 -0.193588 -0.183351 -0.481527 0.591551 0.542635 -0.503726 0.513197 0.695677 -0.079179 -0.190005 0.158016 0.017630 -0.856584 0.333733 0.247521 -0.207481 -0.204856 -0.121311 -0.081072 -0.828782 0.258428 0.092312 0.054609 -0.949739 -0.279319 -0.966491 -0.604373 -1.328522 -0.211271 1.031765 -0.020846 0.644256 -0.036007 -0.627847 0.112197 0.007515 0.322016 -0.369810 -0.848444 -0.395563 -0.485688 0.228378 -0.285213 -0.111856 0.469109 0.780440 -0.635143 0.474265 -0.328209 -0.787917 -0.147452 0.492285 -0.170066 1.407389 -0.188272 0.451551 0.640144 -0.605749 0.552820 0.468562 0.178417 0.304265 -0.772187 0.715068 -0.855264 -0.974963 -0.465968 0.170196 -0.424755 0.151345 
house 0.196968 -0.766694 0.522447 -0.547852 -0.454534 -0.365691 0.602781 -0.315903 0.566075 0.467562 -0.198584 0.173125 0.061733 -0.209970 -1.162531 1.790881 0.682430 0.324578 -0.930863 0.647236 -0.600672 -0.254758 0.240626 -0.648217 -0.183132 -1.040865 0.215730 0.902008 0.978371 1.961522 0.474138 -0.165500 -0.453763 -0.398629 -0.165665 0.029843 0.417397 0.092188 0.242465 -0.690840 0.772513 -1.234812 -0.789055 1.413700 1.419999 0.667908 -0.234094 -0.773702 -1.016460 0.335011 0.094602 -0.175115 -0.092184 -0.406564 0.691548 -0.680831 0.815046 -1.003118 0.476947 1.556449 0.841389 0.567158 0.198956 0.036860 0.593050 -1.219079 -0.734598 0.746351 -0.262931 -0.677369 -1.290512 -0.091982 -0.203601 -0.652350 0.280102 -0.529714 0.370495 -0.928649 -0.835041 -0.608756 1.072548 0.244247 0.096836 -0.521045 1.446836 0.284074 0.393734 0.319700 1.310917 0.519321 -1.098293 -0.279438 0.647974 -0.097323 -0.831914 0.256533 -0.976272 -0.161641 -0.460732 -0.131343 
europe 0.151639 -0.323363 -1.004583 0.780171 0.918948 0.662724 -0.390644 0.093328 -0.452509 0.330328 0.344946 -0.464624 -0.610700 -0.453415 0.038746 0.044295 0.483953 0.432091 -0.271518 -0.622959 -0.502255 0.933474 0.108309 0.101108 0.121590 0.012092 0.906940 -1.768956 1.434350 -0.344316 1.029475 1.444765 -0.157438 0.977087 -0.827854 -0.674867 0.464531 -0.280626 -0.094011 -0.571382 -0.399743 0.040519 0.195570 -0.222018 1.666436 -0.456350 0.193115 0.006549 0.394028 -0.111920 -0.647207 -0.706485 -0.770456 -0.655320 0.365614 -0.413405 0.230605 0.559840 0.505538 -0.217519 0.355534 0.709573 0.097491 1.958439 -0.503941 0.622778 0.534703 0.621716 -0.033285 0.938213 0.824951 -0.687359 -0.624548 0.192950 -0.429356 -0.403774 -1.551415 -0.000276 1.145399 -0.599107 -0.523414 -0.918510 -0.212091 0.782602 0.290928 1.426189 0.699829 -0.697311 0.139687 0.492841 -0.224951 0.572456 -0.313835 1.091241 1.134187 -0.319552 -0.861524 -0.594217 -0.940423 -0.987680 
water 1.076232 -0.024771 0.365062 -0.261945 0.615573 -0.458969 1.013918 -0.092779 0.997642 -0.811098 -0.701850 -0.004032 0.173075 0.020832 1.196518 0.516658 -0.382661 0.472692 -0.008243 -1.119792 1.051708 0.283062 -0.394750 0.295642 -0.221400 0.429442 -0.952898 1.573129 1.212876 1.223217 -2.000489 0.556271 0.435802 1.480854 -0.436334 -0.714676 0.214457 0.520594 0.465773 1.029335 -0.269922 1.241044 0.093789 -1.165123 -0.878402 -0.404049 0.439213 0.234594 0.369065 -0.490731 -0.085265 0.750489 0.769754 -1.140020 -1.380764 -0.227444 0.092003 -0.364315 -0.311738 -1.135252 0.387612 -0.479468 0.249470 0.680128 -0.345772 -1.129432 0.682525 0.104404 -0.088802 0.713188 0.608073 -0.588515 -1.355148 -0.299764 -1.281923 1.197932 -0.310871 -1.085031 0.208296 1.791822 0.795585 0.105617 0.591419 -0.894257 0.172338 -0.911749 0.697031 1.432568 0.409307 0.339307 0.093488 0.664339 0.462945 1.255634 1.749494 1.497774 -0.235983 0.845519 -0.088888 0.346144 
school -0.104039 -0.091866 0.350937 -0.280254 -0.453508 0.452496 -1.213700 -0.809985 0.571388 0.008366 -0.265035 -0.213586 -0.306886 0.107209 -0.086929 1.054885 0.031686 0.112571 0.430750 0.005006 -0.644746 0.639657 -0.111125 -0.097668 -0.523267 -1.605280 -0.688851 0.270922 0.353052 -0.964961 0.029535 -0.666842 -0.428353 1.456881 -0.069760 -0.092442 0.655016 1.792253 -0.089977 -0.366977 1.029799 0.490055 0.957442 0.176550 0.713714 0.702775 -0.842697 -0.674868 0.518938 -0.072314 1.196348 -1.374643 -0.789215 0.259510 0.544140 0.511247 -0.462452 -1.353089 0.281750 -0.589212 0.318436 0.832289 -0.474844 -1.277535 0.695173 0.660437 0.196891 0.454228 1.350005 -0.957801 -0.773008 0.246435 0.565893 0.145881 -0.630634 -0.799089 0.845112 -0.248913 0.151183 -0.147184 -0.431700 -0.841929 1.034375 -0.049614 0.610525 0.889108 -0.335386 -0.840827 0.822359 0.057214 -0.238990 -1.511164 0.498578 0.667891 -1.080461 -0.022552 0.277187 1.287373 1.459418 0.044706 
france 0.583762 -0.710178 0.257895 0.552639 0.964844 1.008436 -0.888664 -0.443726 -0.963312 1.096346 0.803188 0.347723 -0.657876 -0.403282 -0.828003 1.244451 0.778998 0.450178 0.967563 -0.686602 -0.571738 1.929911 0.340428 -0.393337 -0.407517 -0.180524 0.864484 -0.533171 -0.203267 0.467674 0.976442 0.556058 0.259773 -0.241909 -1.136297 -0.269451 0.618702 0.284104 1.005577 -1.207796 -0.533035 0.298182 -0.012397 0.169111 -0.397562 -0.966490 -0.043152 0.145759 -0.207141 -0.596464 -0.120108 -0.708117 -0.249664 -0.062643 0.228770 -0.529256 -0.162509 0.120227 0.811088 -0.108328 0.835896 0.498187 0.637516 1.788440 -0.853810 0.203120 0.291116 -0.570798 -0.016482 0.581025 0.937656 -1.121582 -0.481057 -0.714307 0.087199 -1.130569 -0.856066 -0.040140 1.020470 -0.481027 0.307105 -1.762007 -0.088863 1.021732 0.216705 1.019523 0.199543 -0.030646 -0.164391 0.402392 0.237951 -0.268453 -0.851061 1.130919 -0.116210 -0.099262 -0.464272 -0.824220 -0.051639 -0.808090 
england 0.359194 -1.805258 -0.224190 -1.026045 0.126527 0.703153 -0.155573 -0.831666 -0.902373 -0.218776 0.565843 0.536597 -0.302589 0.872520 -0.604729 0.492710 0.624263 1.011673 0.246563 -0.630712 0.269007 0.264423 0.679824 -0.230756 -0.689221 -0.897210 0.661566 0.320335 -0.698292 -0.132890 0.739712 0.388669 -0.172006 0.821602 -0.326842 0.022818 -0.275730 -0.131113 -0.235052 -0.098265 0.679867 -0.645284 0.038211 0.619898 1.701220 -1.356443 0.387708 -0.801093 0.631647 -0.247324 -0.472168 -1.039685 -1.332948 -1.093148 -0.766642 -0.332897 0.857642 -0.513296 0.640623 1.026409 -0.171376 0.147555 0.022223 0.614376 -0.258516 0.560559 0.419360 0.180700 -0.046371 0.536784 0.525772 -0.474137 -0.463966 -1.943827 0.265512 -0.287820 -1.161669 0.980734 -0.132504 -0.907585 0.368316 -1.176357 -0.317661 0.715583 -0.634838 0.260929 1.032784 0.638050 -0.530531 -0.246062 -0.549902 -0.609052 -0.607537 0.591519 -0.139433 0.515828 0.140536 -1.379515 -1.092045 -1.007465 
space 0.436499 0.688066 0.807588 0.030454 -0.962443 -0.795610 -0.207653 0.215206 -0.063975 -0.058842 -0.768750 -0.039182 -0.378782 0.223985 -0.189040 1.302549 1.113644 -0.664209 0.508166 0.059346 0.613071 -0.518570 -0.899425 0.669279 -0.121428 -0.276298 -0.984096 0.717060 -0.956210 1.534453 0.913156 0.354107 -0.496722 -0.876139 0.368612 0.129135 -0.094425 -0.525796 0.136039 0.915712 -1.176623 0.617207 -0.613079 -1.702457 -1.171562 -0.490185 1.831633 -0.299760 0.591825 -0.349832 0.554247 0.138597 0.040343 -0.205539 0.714141 1.388381 -1.172240 0.101027 0.343543 0.194549 1.157418 -1.769194 -1.204098 0.794962 1.277114 0.259918 1.101147 -1.036992 -0.557576 -0.638194 0.887737 -0.786297 0.372376 1.718917 -0.202596 -0.506262 0.159223 -0.497068 -0.772727 0.543970 -0.493818 0.262051 -0.710557 -0.445142 0.419469 -0.392757 -0.038038 -1.539020 0.018055 -0.257909 -0.136811 1.610078 0.119300 0.626964 -0.021022 -0.172667 -0.854959 1.203708 -0.313011 0.982084 
short 0.203821 0.733038 0.635592 0.008531 -0.322886 -1.172945 -0.526318 0.082510 -0.063465 0.613757 0.738617 0.471048 -0.491737 1.217839 -0.704937 -1.006668 -0.607165 0.500048 0.103022 -0.016771 0.128698 -0.707172 -1.102695 1.142893 0.583711 -0.047811 0.313857 1.112463 -0.582851 -0.342331 0.521740 0.685256 -0.382332 0.115950 0.051733 -0.165438 -0.281437 0.912247 1.021174 -0.271978 -0.524101 -1.222839 0.073104 -0.183364 0.650875 0.463824 -0.230642 0.759447 0.066488 -0.423276 0.059416 0.069965 1.020173 0.190833 0.155494 -0.100325 0.341083 0.196819 -0.578622 0.286435 0.562263 -0.333097 0.213842 0.184068 -1.053398 0.068403 -0.573982 -0.850812 0.157339 -0.045150 -0.764470 0.411571 0.211548 0.536965 0.116533 -0.493002 -0.639688 -0.285619 -0.871230 0.442944 -0.307930 0.195849 -0.426831 0.583212 0.136395 0.364960 0.160854 -0.480274 0.021380 0.479089 0.378945 -0.554456 -0.055030 -0.438150 0.376907 0.665322 -0.048603 0.369438 0.319525 0.207535 
body 0.118452 1.024019 -0.710755 0.006822 0.213179 -0.611861 0.837560 0.143865 2.165255 0.836955 -0.577383 0.411187 0.421775 0.471516 -0.334329 -0.751200 -0.449452 0.724572 0.543865 -0.799397 -0.035341 -1.426455 -0.000129 -1.082356 0.188781 -0.701066 -0.960384 2.095927 -0.816841 0.907491 -1.604301 0.946483 0.147571 -0.108897 -0.132616 -0.599875 -0.160926 0.356974 1.119388 0.733820 -0.588457 1.168639 -0.165698 -0.162174 1.146820 -1.363581 1.568645 -0.371470 0.148742 0.231813 -0.989576 1.363798 0.822669 -0.796891 -0.172543 -0.062508 -0.947211 -0.058004 1.713939 -0.826451 0.978922 -0.589456 1.590727 -0.186730 0.502466 -0.367762 0.526904 -0.271338 0.035164 -0.079628 -0.836950 0.064465 -1.030923 -0.876476 -0.768100 -0.451019 0.323055 0.130102 0.336850 -0.050538 0.210761 -0.976851 0.222511 -1.045137 0.594507 0.371506 -0.175917 -0.268579 0.673545 -0.740007 1.317266 0.528783 0.467689 1.052555 0.773261 -0.479529 -0.803213 -0.209554 -0.022901 -0.498630 
college 0.841899 -0.434845 0.841413 -0.669448 -1.255083 1.128437 -0.754683 -0.096462 -0.567736 0.193841 0.661291 0.489049 -1.348813 0.059236 1.524765 1.133599 -0.441638 -0.156357 0.237148 -0.972059 0.333168 0.460775 0.406704 -0.117044 -0.881225 -1.408748 -0.942567 -0.552435 -0.639534 1.051049 0.441225 -0.629157 0.242143 0.701963 -0.022579 -0.506491 0.319892 1.463735 1.635627 -0.618125 0.520023 -0.144575 -0.305381 -0.203851 1.108231 0.878204 -0.693024 0.410406 1.121749 0.126839 0.148179 -0.929584 -0.807533 0.015852 -0.254330 1.400581 0.945725 -1.686090 0.176831 0.586344 -0.472775 0.176341 -0.664857 -1.245941 0.936543 0.796897 0.650523 1.187111 0.829022 -0.805806 -0.952527 -0.333900 -0.211021 -0.440125 -0.437741 -1.155823 -0.607205 0.068388 -0.082764 -0.315478 0.054149 -0.389822 1.351671 0.405822 0.520039 1.207571 -1.233860 0.045051 0.499808 -0.594301 -0.200561 -1.666083 0.236428 0.634718 -1.136256 -0.269386 0.784844 1.133396 0.745078 0.123723 
america 0.030034 0.296585 -1.128301 -0.270319 0.668049 0.023840 0.216267 -0.035727 -0.230212 0.444231 0.862052 0.543054 -0.436228 -0.297811 0.285978 -0.088686 0.476934 -0.412361 -0.435857 -0.080409 -0.157523 0.501150 -0.540585 0.247311 -0.461284 -0.489681 -0.656965 -1.541933 0.942335 1.108895 -0.064700 0.505106 0.169018 0.416249 -0.404508 -0.903196 0.072245 0.512407 0.060006 -0.920222 -0.748096 -0.188522 0.330146 -0.164084 1.756013 -0.224311 -0.607133 0.084497 -0.253665 -0.165074 -0.706440 -0.205779 -0.905718 -0.077385 0.551284 -0.233945 0.618830 -0.752207 0.025793 -0.229954 -1.058037 -0.076435 -0.923729 1.571267 -0.406833 0.823671 1.148738 1.095603 -0.363385 0.765206 0.177909 -0.372064 0.369435 1.365900 0.226303 0.110334 -1.212840 -0.116600 0.259389 -0.813217 -0.822631 -0.915160 0.780095 0.039015 0.002288 0.795262 1.080587 -0.365788 -0.156573 -1.348393 0.194802 0.094032 -0.246991 -0.147520 0.060616 0.386866 -0.322316 -0.298968 -0.028776 -1.558816 
light -1.002683 -0.691413 1.186700 -0.337799 -0.238684 -1.042863 -0.244514 0.131829 1.049412 0.263202 0.001921 -0.626772 0.392379 0.704881 -0.516907 1.087855 -0.386973 -0.169714 0.528373 -0.108349 -0.336537 -0.836896 -0.931241 0.810389 -0.621228 -1.003218 -0.924482 1.290221 0.250722 0.408071 -1.532626 1.183140 -0.173980 -0.051773 -0.223126 -0.449395 -0.003350 -0.416041 2.029430 1.647387 0.106226 0.744053 0.419984 -1.137112 -0.430219 -0.542479 -0.000551 -0.705604 0.104886 0.563073 1.006721 0.769784 -0.455372 0.046166 -0.090339 0.788933 0.003050 0.931633 -0.442642 -0.521535 0.962297 -0.009840 -0.414977 -0.341370 -0.042693 -1.502871 -0.627220 -1.176586 -0.932078 0.073813 1.286156 0.644880 -1.032346 0.604864 -0.881383 1.396132 -0.037181 -0.770916 -0.333439 0.604668 -0.280966 1.064909 0.014641 0.710107 -0.016534 0.047077 0.159129 -0.009361 -1.633667 0.095677 1.250995 0.841601 -0.472587 0.898208 0.266672 -1.529405 0.201991 -1.335115 0.775217 -0.699408 
white 0.147947 -0.008187 -0.412310 0.354660 -1.401536 -1.074980 -0.156129 -0.374952 0.392588 0.135669 0.263129 0.942272 0.726767 0.298555 -0.314803 0.885172 -0.695548 -0.305596 -0.141987 0.077564 0.153832 -0.051589 -0.696698 1.272510 -0.255832 -0.331665 0.110759 -0.180562 0.831901 1.190212 -1.037071 -0.898117 -0.825239 0.070030 0.710808 -0.486428 -0.262485 -0.457173 0.471574 0.534434 0.176075 -0.017204 -0.812426 0.657596 0.147794 1.002920 0.199887 -1.619051 -0.643579 -0.565604 0.923476 -0.052319 0.086301 -0.376673 0.635457 -0.555727 0.248661 0.344054 0.266658 0.210548 0.608929 0.107999 0.598536 0.431795 0.344714 -0.690802 1.054807 1.206691 0.026983 0.279785 0.601952 0.670509 0.072686 0.733473 0.048943 0.157117 0.192915 -2.392721 -0.411902 -1.074630 0.582116 0.294665 0.823836 -1.054967 -0.513606 1.362743 -0.327511 1.685558 -0.965802 0.532427 -0.046588 0.181050 -1.245179 -0.689494 0.046056 -0.153524 0.670005 -1.012949 -0.484751 -0.184021 
level 1.365251 -0.445301 0.699802 -1.033144 -0.023951 -0.310852 -1.071436 -0.281922 1.299070 0.126001 -1.188373 -0.205080 -0.516670 0.574892 -0.610700 -0.782121 0.344545 -0.465861 0.322487 -0.143245 0.578161 0.665391 0.010572 -0.500974 0.284326 -0.390016 -1.197224 0.157780 -0.257427 0.344117 -0.877626 0.601689 -0.654649 -0.064649 -1.318416 0.079719 -1.783933 -0.171874 0.398787 0.802182 -0.109153 0.075412 0.091239 -1.212165 -0.303937 -0.297386 -0.312793 1.379064 1.377110 0.249162 0.373392 0.589259 1.401014 -0.568876 0.024595 0.842976 -0.097801 0.056185 0.232537 -1.093410 -0.682132 -0.164654 0.600580 0.024707 -0.305948 0.111685 0.498664 -0.624345 1.576376 0.729884 -1.400046 0.456333 0.421320 -0.320238 -2.281631 0.093988 0.694748 -0.066767 -0.272402 1.323385 -0.393925 -0.149092 0.707728 -0.110469 0.176344 0.801201 -0.710305 -0.262029 -0.019445 0.457221 -1.111704 0.742486 1.129900 -0.410097 -0.034461 -0.798010 0.617528 0.213888 -0.862692 -0.047653 
red -0.692263 0.259639 -0.665444 0.727527 -1.220470 -1.513960 -0.235082 -0.028129 -0.568392 0.772390 -0.750145 2.148435 1.111552 0.137973 0.102602 0.708518 -0.397336 0.277684 -0.055255 -0.055239 0.153961 -0.215096 -1.170267 0.544118 0.133690 0.198784 0.814712 -0.404171 0.230750 0.675923 -1.418467 -0.539653 -0.921369 0.096135 0.176434 -0.131149 -0.957124 -0.657667 0.363014 0.530566 0.323550 0.110269 -0.854548 0.622815 -0.773178 -0.065425 -0.579199 0.509191 -0.605813 -1.185567 0.087811 0.913175 0.251631 0.229900 -0.042082 -0.159530 -0.583448 0.750845 0.010886 -0.190885 0.540822 -0.577522 0.478379 -0.284634 0.243843 -0.464540 0.979941 0.484536 0.432887 -0.487721 0.157151 0.322780 0.267566 0.409613 0.058414 1.195063 -1.578133 -0.989972 -0.243805 -1.344937 1.201149 0.840861 0.441390 -1.239556 -0.851455 0.966999 -0.168918 1.203122 -1.437019 0.675973 0.736995 0.419428 -0.918280 -0.216999 1.032235 -1.692079 0.640442 -0.187634 0.210377 -1.087333 
type 0.614297 1.272506 0.139369 0.050101 -0.446565 -1.471054 0.064170 -0.506421 0.676430 1.253441 -1.288988 -0.367140 0.283999 0.297724 0.232421 -0.337461 -0.562292 0.164551 -0.262005 -0.409939 0.455191 -0.814478 -0.970321 0.944380 0.287721 0.275052 -0.308535 0.884483 0.557676 0.187018 -1.214848 0.617318 0.420959 -0.436048 -0.210603 0.438867 -0.191019 -0.853090 1.163457 0.529660 -0.504930 -0.573212 0.180326 -1.442008 -1.342775 0.990894 0.274873 1.049437 1.144322 -1.215540 0.112275 -0.225015 0.751748 0.277795 -0.395590 -0.235321 -0.522636 0.669414 -0.290836 -1.507637 0.580529 0.612236 -0.522178 1.024847 0.646173 -0.216196 0.216088 -1.007372 0.999125 0.679859 0.099137 0.379927 0.876566 -1.236928 -1.431844 -0.573625 -0.512822 0.098999 0.463314 -0.562735 -0.248645 0.342023 0.243516 0.208042 0.127362 -0.088880 -0.664024 -1.132017 0.610874 -0.496862 0.147700 0.751373 0.409688 -0.404061 0.179235 0.415115 0.562108 -0.129581 0.313064 0.383133 
canada 0.546140 -0.808812 -0.487093 -0.396577 0.843586 0.478858 0.122134 -0.414847 0.569912 0.139190 1.212537 1.109182 -1.642854 -1.140409 -0.172638 1.182929 1.130297 -1.709180 0.205370 0.221280 0.091722 0.995232 0.715421 -0.136061 -0.909445 -0.644879 0.122298 -0.141080 0.586247 0.422787 -0.956403 -0.333513 -0.083922 0.705606 -0.572004 -1.691241 -0.538226 -0.225793 -0.404588 -0.818901 -1.067599 -0.092854 0.420474 0.211715 -0.267272 -0.430914 -1.244761 1.245863 0.495043 0.415690 0.368335 -0.383038 -0.844178 -0.237078 0.873290 0.786069 1.242294 0.520604 -0.011638 -0.727899 -1.076353 -0.345550 -0.450868 0.521131 -1.127857 0.968682 0.275155 0.072539 -0.565450 0.391773 -0.118581 -1.385772 0.190664 -0.379723 1.072787 -0.752518 -1.426082 -0.052849 -0.323401 -0.772431 -0.660179 -1.036878 0.260449 -0.033187 -0.186959 1.003386 0.152618 0.913545 0.122012 -0.880042 -0.906990 -2.293614 0.184906 -0.520803 0.180520 0.330558 0.100205 -0.184522 0.637486 -0.803904 
television 1.060225 0.530843 0.432850 0.140944 -0.291185 -0.761783 0.260634 0.865577 -0.710244 -0.498914 0.286250 0.887334 -0.970301 -1.109551 -0.765846 -0.288278 0.622682 -0.658099 0.145136 1.549452 0.689723 -0.876551 -0.152614 0.094490 -0.064836 0.551651 -0.990918 -0.438392 -0.323650 1.507091 0.993521 -0.767709 0.134952 -0.169110 -0.413420 0.073918 0.547201 0.562909 -0.063782 -0.604485 -0.494367 -1.068898 0.622244 -0.066176 0.130068 1.139858 -0.034209 -0.632370 0.088503 0.909450 0.903213 0.509373 -0.609401 0.904407 -0.198800 0.519347 -0.369734 0.215888 0.406280 0.238689 -0.349150 -0.251347 -1.557026 -1.032552 0.146443 1.226806 0.058392 0.550503 0.895179 -0.616373 -0.773943 -0.138298 1.168591 0.897814 -0.184482 0.274598 -0.869009 -0.333870 -0.106453 0.400692 0.279555 0.265420 -0.235837 1.305548 0.588604 -1.028591 -0.516198 0.329925 -1.291568 -0.066831 -0.776972 -0.739716 0.685112 -0.439364 -0.258278 0.097742 -0.436524 -2.004499 -0.101290 -0.097207 
china 0.217094 0.238099 -1.054145 -0.635828 0.858700 -0.164125 -0.556147 0.145450 0.628350 1.000114 0.316642 0.150590 -0.718758 -0.639655 0.778178 0.948447 0.812610 -1.138879 -0.897797 -0.701820 0.047640 0.039995 0.957544 -0.489737 0.222518 0.942019 -0.452670 -1.620121 0.385616 0.162589 0.957962 1.542631 0.128509 1.329992 -0.410412 -1.146609 0.739113 0.241507 -0.547042 -1.437469 1.366161 1.131265 -2.302285 -1.194277 -0.753573 -0.099883 -0.900989 0.609854 -1.086165 -0.466039 -0.252948 -0.418628 -0.248833 0.745686 0.084849 -0.130576 0.344848 -0.267354 0.672881 -0.677653 -0.112862 0.084233 0.437524 -0.383146 0.243418 0.068092 -0.136317 -0.113732 0.161057 0.038022 0.713879 0.365431 -1.004622 0.490789 0.494924 -0.804448 -0.633099 -0.065251 1.716870 0.047048 -1.080536 -1.021321 0.664173 0.780692 0.027832 0.907254 0.485611 0.044261 0.306818 0.705831 -0.464634 -0.398475 0.188909 0.618213 2.789576 -0.824671 0.145215 -0.863498 0.746979 -0.379395 
half -0.679137 0.111770 -0.530578 0.956587 -0.028078 -0.019670 -0.548773 -1.431335 -0.238154 -0.671355 0.072932 0.842170 1.650895 0.732387 0.402661 -1.063120 0.812320 0.280188 0.079553 -1.061673 -0.633822 -0.823194 0.431541 0.301694 0.152294 -0.312642 0.692997 0.026278 -0.182721 0.081870 0.744900 0.513940 -0.944747 -0.025300 1.102011 0.331580 0.172653 0.608702 -0.013043 0.591790 -0.462012 -0.167077 -0.201839 -0.433943 -0.153651 -0.166586 0.105508 -0.391620 1.688943 0.387645 -0.142013 0.160138 -0.262530 -0.439800 0.091607 0.641288 0.922515 0.909774 0.383242 -0.422571 -1.228169 -0.558399 0.135660 0.120426 0.312646 -0.674718 -0.498219 -1.182834 -0.062396 0.018057 -0.614501 -0.360907 0.239045 -0.539934 0.183590 0.807953 0.034618 0.261451 0.260297 0.289967 -0.004047 0.029146 0.697069 0.426350 0.308577 0.023819 0.107337 1.151569 1.105949 0.900614 -0.225923 -0.378663 -0.247694 1.073576 1.221085 -0.042986 0.147388 0.802292 0.310046 -0.326240 
radio 0.914985 -0.380648 0.867167 0.134335 0.040954 -0.941042 0.019948 1.006966 -0.323363 -0.377803 0.503041 0.259313 -0.196936 -1.319515 0.335104 0.289906 -0.139905 -1.034463 1.352281 1.503766 0.301390 -0.722630 0.545542 0.314877 1.254320 -1.131303 -1.015114 -0.499239 0.567560 1.320475 0.450299 -1.012096 -1.019834 0.007865 -0.277118 0.200453 1.633679 0.215907 0.499725 -0.660200 0.072809 -0.556021 0.560565 0.462219 -0.179607 1.438710 -0.359303 -0.775024 0.736637 1.784593 0.798299 -0.339040 -0.692569 0.956662 0.571244 0.697707 -0.724736 0.630868 -0.340824 0.050586 -1.314538 -0.326953 -0.718766 -0.763724 -1.253019 0.246138 -0.523312 -0.165535 -0.424993 -0.483283 0.411847 0.425756 0.812940 0.298207 -1.601311 -0.509254 -1.229755 -0.425369 0.292193 0.845467 1.366492 0.453957 -0.710676 2.309231 1.128258 0.425541 0.014312 0.164232 -1.391838 -0.294490 0.126987 0.133096 0.552034 0.189095 -0.398078 0.580752 0.015045 -1.029148 0.358889 0.542791 
nature -0.696437 0.307456 0.843540 -0.856450 0.145434 -0.750001 -0.206354 -0.045478 1.877085 0.122531 -1.068018 -0.269190 0.002552 0.832516 -1.122510 -0.314232 -0.787320 -0.099746 1.691530 0.657910 -1.175906 0.294663 -0.124952 -0.540610 -0.714048 -0.969638 -0.287780 0.191491 0.434261 -0.659891 -0.115557 1.824806 0.456454 0.543097 0.474254 -1.025716 0.434316 0.272063 0.136372 1.058333 0.054017 0.802516 -0.339924 -0.933762 -0.240856 0.400812 1.538801 -0.848493 0.466506 0.073237 -0.556926 0.784148 0.209853 -0.240366 -2.125168 0.721737 -0.999795 0.272039 1.044797 -0.074370 0.652177 0.243927 0.243506 -0.501087 -0.283567 -0.006297 0.538689 -1.221502 0.501694 0.546202 -0.056723 -1.229800 -0.117149 -0.429114 -0.437686 -0.497743 -0.570158 0.102987 0.229523 -0.070323 -1.407125 0.341377 0.127691 -0.847887 0.767606 -0.727323 1.027892 -0.275606 0.749266 -0.237545 0.451203 1.386240 0.123678 0.826252 -0.417311 -1.035259 -0.659226 0.586536 -0.468039 0.091514 
japan 0.209274 0.308116 -0.439863 -0.131038 1.612679 0.492169 -0.819753 -0.122794 -0.198041 1.512890 0.486005 0.244247 -0.607175 -1.400494 0.752508 1.299187 0.757460 -1.068030 -0.745941 0.234276 -0.642194 -0.341667 0.924940 0.035557 0.909149 0.920544 -1.039751 -0.351062 0.392612 -0.386363 0.708963 1.283642 0.122920 0.300125 -0.596238 0.247928 -0.026970 -0.611837 -0.538085 -1.427655 0.691245 0.388242 -1.109858 -0.547238 0.235856 -0.296771 -0.801280 0.117922 -0.860885 -0.611217 -0.206035 0.118077 -0.320188 1.091082 0.913959 -0.798775 0.731949 -0.750901 0.632334 0.235748 0.132898 -0.237720 0.674142 0.390909 -0.621771 -0.020754 0.287761 0.017186 0.649065 0.510365 -0.004496 -0.640395 0.747556 0.819728 0.256662 -0.732373 -0.440484 -0.240011 0.303961 -0.137211 -0.301950 -1.604504 -0.224713 0.570934 -0.130143 0.518545 -0.362989 -0.316439 -0.658039 0.233934 0.325620 -0.402692 1.278123 0.419854 2.153325 -0.877064 -0.195542 -0.596473 0.519037 -1.450131 
song -0.784115 -0.623483 -0.952604 0.766322 0.327491 0.088543 -0.103919 -0.161429 0.481267 -1.934781 -0.548385 -0.716567 -0.245921 -0.473558 -0.246008 -0.670446 -0.570191 0.510166 0.542971 0.360948 0.129466 0.168686 -0.402874 0.632466 -0.764504 1.723763 0.042044 -0.221363 -1.152138 1.680319 0.523869 -0.301555 -0.029821 -0.579026 0.218089 -0.327616 1.384398 0.607917 0.646314 -0.154130 0.950349 1.146218 0.214375 -0.552646 0.146482 1.818674 -0.495584 0.405266 -1.595147 1.088541 0.644715 0.532350 -0.359360 1.545870 1.354230 -0.234228 0.047996 -0.636151 -1.133451 1.440093 -0.349655 -1.394240 1.141596 -0.998818 -0.017768 0.687256 -0.405721 1.077599 -0.001325 0.116481 0.168874 1.023484 0.789874 0.858927 -0.211911 0.315846 -1.433874 -0.130187 -1.664214 -1.214168 0.878385 -0.732398 -1.392018 1.313033 0.074063 0.387650 1.179412 0.116392 0.016810 -0.410653 0.229876 1.313571 -0.225635 0.092474 -0.787198 1.017194 0.327901 -0.013167 -0.400228 -0.963029 
office -0.816147 0.331955 -0.060293 -0.950094 -0.445930 0.414405 -0.430955 1.170725 -0.588575 1.005843 0.079182 0.566067 -0.029186 -0.585810 -0.381995 0.277002 0.517600 -1.422025 0.733460 0.685461 0.054174 0.113717 0.555385 -1.223109 0.238537 -0.406816 0.625226 0.058602 0.087772 0.904439 0.787885 1.190231 -1.012167 0.238192 0.325331 -0.343815 0.243090 -0.886047 0.020073 -1.024981 -0.038189 -0.193537 -0.173787 0.366485 0.819323 -0.060675 0.434241 0.784151 -0.469430 0.694901 1.494833 -0.963681 0.032364 -1.032420 0.775186 -1.369114 0.678613 0.116891 0.431576 -0.127921 1.097710 0.166502 -0.417065 -1.137707 1.553631 -0.034401 0.588057 -0.471802 0.300516 -0.498844 -0.367024 -0.700052 -0.221792 -1.196617 0.590662 -1.671541 0.703598 -0.666744 -0.088032 -0.380443 0.217717 1.571567 0.270194 -0.258658 0.337493 -0.500469 -0.263422 0.679916 0.999021 -0.619167 -1.541630 -0.276473 -0.181022 0.515448 0.054950 0.534171 -0.178929 -0.430127 -0.161325 0.516873 
star 0.296096 -0.300945 -0.164991 0.964391 -0.674454 -1.156096 -1.095866 -0.603569 -0.771869 0.111620 -0.000837 0.069931 0.064378 1.817796 -0.137934 0.207583 -0.337817 -1.569379 -0.102783 0.945098 -0.035560 -1.973001 -0.115127 0.973392 -1.516047 -0.007116 -0.494427 -0.002020 -0.649482 1.029480 -0.023587 0.003056 0.058919 -0.073742 0.406616 0.135044 -0.119321 -0.892979 -0.289077 -0.379066 -0.020047 -0.340627 0.271806 -0.066903 -0.490562 -0.318730 0.016766 -0.737976 -1.373291 1.238657 0.224477 0.676723 0.480881 0.363477 0.950880 0.046650 -0.625974 0.168158 0.519384 0.635148 1.043941 -0.163109 -1.795355 -0.943658 -0.252267 0.155666 0.679828 0.308403 -0.018264 -0.163150 -1.272755 -0.248220 1.084585 1.009676 0.502011 -0.047431 0.127276 0.583545 -1.558394 0.458729 -0.332133 0.096289 1.287527 0.934915 0.300468 0.085628 -0.255319 0.568354 -0.899073 -0.794925 0.920387 1.506177 -0.577345 0.705425 -0.623010 -0.312799 0.049417 -1.098495 1.320175 -0.537017 
season 0.262652 0.574610 0.639965 1.229270 0.309866 -0.210042 -1.673655 -1.526237 -0.649148 -2.208226 1.311233 1.684299 -0.468776 0.630048 -0.054028 0.193459 0.427122 -0.923339 -0.571974 -0.360167 -0.054707 -0.250625 -0.015295 0.154574 0.137814 0.253673 -0.143758 -0.331282 -0.040766 -0.773217 -1.334387 -0.125108 -0.052472 1.131881 0.217121 1.114367 0.347109 1.726586 -0.408189 0.529945 0.710998 -1.021526 0.460555 0.740598 -0.337516 0.254767 0.556158 1.188430 -0.405848 0.863817 -0.394477 0.105539 0.595974 -0.749881 -0.193882 -0.448701 -0.436026 0.438917 -0.262643 0.854462 -0.158166 -0.670341 -0.649644 -0.466313 0.064855 0.417148 1.355945 0.805948 0.852662 0.034347 -0.593474 0.211563 1.230618 -0.081441 1.009442 1.144141 0.674710 0.135998 -0.364690 1.709184 0.298476 0.936094 -0.697209 0.394472 -1.243851 -1.097038 0.054240 1.657549 -0.931566 0.612793 -0.033984 0.053674 -0.765770 -0.674258 0.487485 0.155790 -0.511464 -0.813477 -0.897870 0.012148 
football -0.355287 -0.706915 -0.248976 -0.674298 -0.297056 -0.229905 -1.193382 -0.851846 -0.283130 -0.172511 -0.943390 1.140881 -1.051177 -0.064611 0.360722 0.332454 0.421729 -1.078694 -0.900395 0.399663 0.396158 -1.016163 0.024358 0.172945 -0.694433 -0.960469 -0.776475 -1.428520 -0.882292 -0.043294 -0.742198 -0.470946 -0.094830 1.416653 0.085243 1.645014 -1.387810 0.960403 1.007853 -1.037826 0.226119 -0.474418 1.394590 0.673426 1.117598 0.489471 0.003388 0.336578 0.766722 0.911218 -0.142800 -0.627295 0.668929 0.153946 -0.566664 0.783653 0.422807 -0.248167 0.429458 -0.267336 -1.163628 -0.333374 -0.465000 -0.490011 1.526008 0.520736 1.434623 1.403772 0.998942 0.326833 -0.453517 0.050863 -0.683877 0.173702 0.697752 0.164092 0.088262 0.948048 -0.255693 -0.182794 1.353532 -2.143060 -0.635818 1.033920 -1.041727 0.582304 -1.361454 -0.778031 -0.918172 0.271515 0.388151 0.387268 -0.671411 -0.492347 -0.217958 0.209200 -0.022585 -0.811051 -0.849286 -0.581354 
internet 1.519447 0.974555 -0.143948 -0.376441 -0.899036 0.622388 0.291369 1.182789 -0.606483 1.399835 -1.726621 0.335995 -0.650383 -1.337166 -0.767536 0.428276 -0.158228 -1.010258 0.601740 0.417680 -0.171939 0.490599 -0.775486 0.068801 -0.100428 -0.543065 -1.718411 0.098036 -0.106251 0.058897 1.253664 -0.285449 -0.672263 0.134800 0.380467 -0.180090 1.267047 0.071935 0.852185 0.091124 -0.208838 -0.496648 0.700459 -1.103247 0.019528 0.903796 -0.111743 1.619974 0.326156 0.177024 0.383454 -0.107396 1.336845 -0.231241 -0.686971 0.469698 -1.208927 0.562582 1.433316 -1.173463 -0.691236 -0.881580 0.436841 -0.931857 0.116244 0.976660 -0.238031 0.220775 0.191675 0.938497 0.440262 -0.232727 1.034662 0.077414 -0.875899 -1.497404 -0.036498 1.168247 -0.249546 -0.259543 -0.208603 1.044648 -0.470933 1.537494 0.371330 0.349719 -0.517564 -0.566543 0.075002 -0.230617 -1.360161 1.111385 1.091934 -1.116604 0.395325 -0.552129 -0.004210 -0.098530 0.335802 0.843689 
outside -0.605960 -0.142664 0.701808 0.030105 0.369376 0.228058 0.042183 -0.775018 1.015181 0.475728 0.131451 0.708703 0.669834 -0.432707 -0.439658 0.458989 0.457649 0.475270 -0.447404 0.130210 -0.020023 -0.969907 0.339298 0.104233 0.502684 -0.750857 -0.081298 -0.068988 0.579406 0.433425 -0.044002 0.872449 0.218433 0.598806 -1.221463 0.511169 -0.104289 -0.360214 0.200352 0.027615 -0.152276 0.804769 -0.089057 -0.362761 0.515833 -0.075850 0.571581 -0.195775 -0.256815 0.016213 0.139626 -0.302964 -0.216319 0.179079 -0.227236 -0.197505 -0.245231 -0.151157 0.509752 -0.523384 0.464403 -0.636228 0.488975 0.394634 0.244662 -0.040632 0.522165 -0.001350 -0.184146 -0.802892 -0.537650 -0.604837 -0.405876 0.068285 -0.601199 -0.486991 0.450545 0.655069 0.056838 -0.108079 -1.021805 -0.506492 -0.107512 -0.362581 0.564953 -0.110739 0.163281 -0.323937 -0.318084 0.186290 -0.252590 -0.034356 0.347015 0.421202 0.137148 -0.920049 -0.537978 0.003146 -0.059213 0.416532 
key 0.603131 0.472335 -0.192873 0.258745 -0.134372 -1.218060 0.133127 0.530396 -0.333817 0.532903 -0.225903 -1.168710 -0.189768 0.393499 0.382566 -0.751827 1.383905 1.033593 0.581065 0.233591 -0.521228 0.042824 -0.390408 -0.271843 0.037047 0.204674 -0.878796 0.355829 -0.823116 1.160959 -1.008539 0.587371 -0.627766 0.043731 0.732461 -0.015204 0.422575 -1.183388 0.186587 0.969548 -0.269542 -0.311645 0.466847 -1.012475 -1.536624 0.578653 -0.342850 0.446855 -0.194814 -0.503663 0.079659 -0.721420 -0.592179 -0.672295 0.080366 0.296808 -1.546033 0.641709 0.366609 -0.259848 -0.733621 1.157114 0.398851 -0.164271 -0.298229 -0.199658 0.575766 -0.665127 0.928701 0.133462 -0.198455 -0.801764 0.566319 -0.652091 -0.006492 -0.516155 0.584162 0.737672 -0.396580 0.252422 0.256383 1.153367 -0.601274 0.559171 0.495495 0.892213 0.300730 -0.731980 1.800504 -0.191271 0.279909 -0.117235 -0.545184 -0.264794 0.727974 -1.287080 -1.158245 1.409117 -0.417662 -0.965177 
fire -0.464773 -0.486363 -1.289678 -0.027140 0.498636 -0.158007 -0.261395 -0.842024 -0.133843 -0.912115 -0.207084 -0.380628 -0.459415 -0.183593 -0.584772 1.284046 -0.130779 0.427472 0.877540 -0.454185 0.507865 -0.282866 0.707935 -1.054016 1.028891 0.899062 0.191158 1.272756 1.069092 1.227775 -0.621074 0.086642 -0.333532 -0.294959 1.272923 -0.806327 0.053207 0.299010 1.129385 0.564455 0.469584 0.853207 -0.359690 0.520927 0.297736 0.114744 0.872826 0.729014 -0.353922 -0.284114 -0.725387 0.966572 -0.294394 1.107879 -0.815663 -0.433264 0.645968 0.752990 -0.944211 0.443131 1.180633 1.109437 0.944093 -0.679036 -0.203291 -0.722041 0.010822 -0.863760 0.249358 0.769139 0.166222 0.531570 -0.839935 0.232817 -0.458233 1.153013 -0.614630 -1.129749 -1.387800 1.393004 1.022405 0.105779 -0.295518 -1.329588 -0.265114 -1.170694 0.139701 -1.240718 0.406176 0.132729 1.430286 1.314663 1.251583 -0.317270 0.447452 1.182476 -0.725178 -0.602789 0.692500 -0.450342 
aircraft -0.280926 -1.623730 0.047562 -0.246889 0.153495 -0.145857 -0.741212 1.521888 -1.023919 0.151995 1.012285 -0.223598 0.392392 0.645560 0.711213 0.997360 0.464451 -0.769744 -0.057682 -0.989241 1.799271 0.223764 0.181325 -0.245072 0.993362 -0.804493 0.100927 0.483005 -0.003546 -0.078460 -1.350232 0.778168 -1.462258 -0.798408 -0.748458 -0.247292 0.641668 0.423724 0.366487 0.288813 -0.375207 0.225948 -0.482556 -0.973497 -1.324138 0.650863 -1.195813 0.039860 1.164937 0.490632 -0.798508 0.301166 0.566709 1.590091 -0.167557 0.200216 0.530916 1.208794 0.602307 -0.297334 0.038539 0.416255 -0.933487 0.054969 0.568446 -0.256053 0.303479 -0.963319 0.111662 0.265950 0.291001 0.033642 0.124527 -0.449868 0.282083 -1.036005 -1.529024 -1.279298 0.231404 1.295090 -0.181737 -0.281749 -1.289602 -0.081470 -0.018474 -0.578524 -0.794696 -1.980183 -1.031629 -0.224877 0.073425 1.067024 -0.615108 -0.611226 0.067389 0.829931 0.747969 -0.674027 0.155040 -0.630650 
post -0.309025 -0.617542 -0.388046 0.960155 -0.355250 0.102475 -0.464387 0.447743 -0.493975 0.375920 -0.130112 0.584673 0.246386 0.190019 0.040919 0.600441 0.343228 -0.644840 0.966910 0.711188 0.828783 -0.337862 0.212677 -0.983840 -0.072716 -1.091321 0.270279 0.478201 0.719529 -0.388594 0.317069 0.763741 -0.196508 1.209845 -0.029456 -0.599643 -0.113377 0.827298 -0.264566 -0.684308 0.401113 0.661269 -0.465776 -0.148349 0.516321 0.326708 0.800131 1.068672 -0.017623 1.291792 0.129255 -1.484626 0.209960 -0.081276 0.410891 -0.195842 -0.116495 -0.237597 0.123145 0.493913 -0.149673 1.153313 0.959194 -0.383844 0.336595 -0.544739 -0.007163 0.308284 -0.012476 0.249956 -0.779196 -0.762332 0.422799 -0.788738 -0.290079 -1.844766 -0.056597 -0.616956 0.354821 -0.854349 -1.354648 0.805046 0.547463 0.683534 -0.080810 -0.340880 -0.293272 0.479193 0.833130 -0.117397 0.058622 0.285386 -0.031086 -0.158910 0.108112 -0.362750 0.222385 -0.030383 -0.719206 0.153948 
personal -0.206412 0.631589 0.251822 0.305553 0.730674 -0.634700 -0.047526 0.667855 0.226895 0.879138 -0.773991 0.924750 0.198602 0.422224 -1.344389 -0.349701 -1.068878 -0.110033 -0.098829 1.542631 -0.414427 0.743124 -0.876522 -0.261061 0.206437 -0.082593 0.023465 -0.173919 -0.464262 0.664898 0.262170 0.438138 -0.292184 -0.891408 -0.537271 0.082742 0.902748 -0.283585 -0.626000 -0.056453 -0.332864 -0.224241 -0.522483 0.199031 0.449158 0.537261 -0.526224 0.558546 -0.067855 1.235254 -0.486470 -0.213325 -0.831537 -0.715802 -0.386895 -0.074258 -0.021950 0.998063 0.754531 -0.783520 0.402449 1.266005 0.937954 -0.869038 -0.088306 0.211144 0.303389 -0.809386 0.982542 -0.295959 -0.032368 -0.427458 -0.215449 -0.564498 -0.405074 -1.125406 0.465693 0.754257 -0.874670 -0.917133 0.224240 0.295772 -0.114031 -0.044975 0.677690 -0.436863 -0.204824 -0.900707 1.025509 0.036737 0.142758 -0.087028 0.324456 1.223859 -0.643448 -0.684140 -0.098352 -0.326531 0.304783 1.510850 
singer -0.546342 0.365580 0.317850 1.168738 -0.120617 -0.279436 0.508380 0.277852 0.027385 -0.847338 0.004215 -0.497602 -0.477946 0.035596 -0.082670 -0.751175 0.488577 -0.348564 0.326183 1.587832 -0.379768 0.712898 -0.533115 0.842807 -1.040612 0.556067 -0.043720 0.155431 -0.847265 0.193242 -0.121317 -1.028415 0.939826 0.020567 -0.855014 0.612128 0.468265 0.276097 0.389420 -0.610031 1.460492 -0.874634 -1.194525 -0.154382 -0.226403 1.658740 0.620360 -0.598068 -0.974858 0.403317 0.692726 -0.333135 -0.663960 2.273458 0.867678 0.255674 0.814914 -0.338014 -0.300068 -0.589492 -0.824839 -0.816109 0.114922 -1.358615 -0.009011 0.875004 0.559236 0.556324 -0.160953 -0.237024 0.275220 0.328705 -0.250949 0.917004 0.267790 -0.275545 0.103495 -0.046510 -0.976351 -0.655912 1.781288 -1.188732 -0.770026 1.557753 0.432763 0.567273 -0.793713 -1.220660 -0.485922 -0.781731 0.560010 -0.489956 -0.300520 -0.056914 -1.026442 1.117946 -0.056556 -0.594805 -0.830279 -0.576428 
park 0.879433 0.191565 0.845996 -0.571710 -0.842248 1.053938 0.864779 0.729723 -0.234735 -1.542083 -0.901546 1.229837 -0.584960 -0.200353 -0.109109 0.273646 -0.108094 -0.036859 -0.168329 -0.572025 0.616999 -0.675278 1.303417 0.282794 -1.278610 -1.261433 0.450599 -0.047128 0.147405 0.110880 -0.515946 -0.225371 0.112924 1.127389 -0.692696 -0.380885 -0.226092 0.881006 0.114115 0.184206 -0.628320 -0.859570 0.263030 0.061120 -0.534021 0.588072 -0.855567 -0.473158 -1.812952 -1.436228 -0.160202 0.072354 -1.145044 1.462907 -0.811301 -0.916300 1.282246 -0.916864 -1.090920 -0.576058 -1.415994 0.039487 -1.017882 -0.385137 0.791707 -0.189851 1.461005 0.727695 0.363110 -1.385126 -1.483584 -0.104221 0.736845 0.952891 0.233285 0.894091 -1.087028 -0.872746 -0.922474 0.384736 1.756713 0.085213 -0.224916 -0.193543 -0.892042 0.590612 -0.114822 0.622687 0.252483 -0.449794 -1.283232 0.312369 0.211061 0.177769 0.554675 -0.652210 -0.019673 0.529476 -0.997808 0.218503 
machine -1.500529 -1.047002 0.154210 -1.062661 0.362503 -0.298651 0.613953 -0.034916 -0.331145 0.895589 -1.603009 -0.953821 0.139478 -0.943829 -0.920686 0.245344 1.064547 -0.160273 1.531168 0.048086 0.199053 -0.873220 -0.604367 -0.084321 -0.083813 -0.022901 -0.585250 0.788300 -0.454190 -0.666243 0.022117 0.188662 -0.338788 -1.701898 0.380288 -0.076908 0.595876 -0.580949 0.311132 -0.076809 0.231265 0.088041 0.416735 -1.138025 -0.989857 0.640928 0.830396 1.398665 -0.240111 -0.015414 -0.443519 0.506629 0.086619 0.847812 0.503211 0.049953 0.435657 0.868719 -0.388708 -1.545951 -0.563371 0.605958 -0.468156 0.935062 -0.942647 0.015309 -0.111048 -0.400937 1.024210 1.251463 -0.255810 1.451081 1.468219 -0.316130 -1.603335 0.354653 0.910330 -0.556589 -1.193380 1.398220 1.004098 0.985530 -0.027233 -0.214234 -1.154354 -0.038802 -0.228929 -1.720639 0.441063 -0.970037 -0.124510 0.988182 0.440142 0.036853 0.765742 -0.120714 0.140774 -0.324514 -0.720037 0.500744 
cell -0.214619 0.855657 -0.004435 0.280527 0.635899 -0.669686 0.062207 0.404717 0.791631 0.211633 -0.914459 0.649109 0.783246 1.573691 -0.268481 0.049136 -0.231152 1.068015 0.800637 0.300229 0.450963 0.162415 0.034739 0.130717 0.685882 -0.318436 -1.168898 1.558448 -0.011110 0.813402 -1.559700 0.650263 -1.093186 0.419534 -0.264040 1.143753 0.073525 -0.683114 1.467361 0.527170 -1.464028 0.535783 -0.580215 -1.189381 -0.837901 1.137213 0.807999 -0.856993 1.327943 -0.616999 0.517524 -1.303281 1.086572 -0.231309 -0.342374 -0.389865 -0.941907 0.227655 0.858169 -2.359578 -0.075093 -1.616729 0.895427 1.236311 0.017615 -0.892924 -0.058549 -0.151002 0.230677 -0.604322 -0.594947 -1.179940 -0.584988 -0.655563 -1.797965 0.058043 -0.528662 0.382850 -0.396729 0.513574 0.094201 0.368882 0.001576 0.121496 -1.110983 0.555401 -0.096538 0.780793 -1.257662 -1.635442 0.773884 0.365067 0.524794 0.159530 1.059510 0.181117 0.353607 1.448843 -0.089882 1.195241 
night -0.393542 -1.080322 1.061993 0.452618 0.050660 -0.708658 -0.129286 0.687872 0.276858 -1.054503 1.228104 -0.531664 -0.139721 -0.549520 -1.222590 -0.134675 -0.051602 0.485353 -1.150541 -0.794395 0.212873 -0.478359 -0.696828 -0.173183 0.002144 -0.321954 0.430331 1.239941 -0.407821 -0.664323 -0.005207 -0.384903 -0.903417 1.304402 1.120666 -0.345162 0.763003 1.101009 0.542246 -0.751965 0.091860 -0.105388 0.854424 1.500239 -0.231222 -0.066034 -0.265427 -0.409557 -0.390557 0.592600 -0.280267 0.465382 -0.138382 0.697568 0.334211 0.677503 0.143363 -0.166601 -0.699313 0.889499 1.154025 -0.107642 -0.144093 -1.338281 0.014695 -0.161216 -0.239227 0.506363 -0.872427 -0.630330 -0.771942 0.331234 0.006956 1.438307 0.106428 1.330283 0.385464 0.429441 -1.552230 -0.399859 0.450056 0.316377 -0.763865 0.353029 1.090712 -1.312766 -0.489526 0.681781 -0.787371 -0.190963 -0.163312 0.796750 -0.572149 0.461297 -0.037497 0.922618 -0.127874 -1.673894 0.525019 -0.707871 
big -0.711987 -0.044189 0.073165 0.228149 0.436259 -0.230085 -0.503392 0.827648 0.329538 0.509405 0.123268 0.846982 0.511831 -0.867062 -1.176037 0.359440 0.168349 -0.500181 -0.802638 0.114327 -0.506284 -0.455181 0.273708 1.353675 0.309992 0.767455 0.018711 0.015771 0.761181 0.340721 -0.524904 -0.760408 -0.096035 -1.362380 -0.573323 0.556680 0.350212 -0.095052 0.371226 0.423380 -0.655887 -0.242088 -0.560303 0.169090 -0.148657 0.051018 1.217016 0.567144 -1.144038 1.113377 0.148756 -0.039217 0.731351 0.402379 -0.055190 0.626269 -0.694892 -1.337758 -0.828987 -0.086112 -0.239520 -0.552685 -2.053754 -0.570340 -0.150334 0.312246 0.065977 0.620441 0.055525 0.671818 -0.947880 0.699771 0.720898 -0.620042 0.313765 -1.001398 -0.747014 0.266650 -1.381244 0.491549 0.520550 0.752739 -0.676735 0.078405 0.162368 -0.574198 -0.218218 0.310815 0.345444 0.316092 0.011756 0.255886 -0.381643 0.287409 -0.614590 -0.261096 -0.431310 0.331980 -0.020073 -1.834733 
money 0.951378 1.235065 1.626698 -0.134333 -0.044067 -0.753069 -0.589948 -0.002263 0.036870 -0.071721 -0.521157 -0.184618 -0.545350 0.401654 -1.413066 0.263104 0.674079 0.333003 -0.058616 0.184056 -0.634681 0.866743 -0.207136 0.711576 0.049606 0.043592 -0.090583 -1.570502 1.105041 0.268331 -0.273802 -0.346399 -0.904599 -0.974133 0.478373 -1.005598 0.360556 -0.391773 -0.491484 0.279993 0.372108 0.723547 0.833267 -1.171857 1.596311 0.107875 -0.263349 0.164795 -0.203025 0.600817 1.004917 -0.322919 0.582176 -1.612235 1.075290 -0.901431 0.315424 0.454893 0.039061 -1.171953 0.714926 0.304989 0.533085 -0.898925 0.440725 -0.205205 -0.223199 0.491764 0.254795 -0.352627 -0.074924 -0.157735 0.382959 -1.020966 1.150795 -0.263405 0.107050 0.946106 -0.729603 0.998150 -0.323868 -1.304949 0.118683 0.374719 0.264365 -0.174924 -0.048307 -1.268858 0.911730 0.881995 -0.916991 -0.454095 -0.206524 -0.508832 -1.230259 -0.489390 0.070860 -0.044221 -0.368310 -0.119222 
letter -0.026777 0.402611 0.091413 -0.559106 0.842481 -0.260460 1.035252 -1.517729 -0.400407 2.236069 -0.517149 -0.490557 0.157035 0.639479 1.325669 -0.015944 -0.935068 0.293325 0.078852 1.615197 0.059054 0.677104 0.366954 -0.056676 -1.025537 -0.064259 0.196364 1.043339 -1.160864 -0.865634 -0.006481 1.352165 0.024265 0.299325 0.950350 -0.630287 0.742964 -0.013856 1.567062 -0.404345 -1.310128 -0.169638 -0.418526 0.922521 0.239181 0.457118 -0.848940 0.016938 0.681911 -0.233292 0.615259 -1.107309 0.377002 -1.198348 0.262646 0.603165 0.276539 0.604913 0.654928 -0.480327 0.127106 -0.388961 -0.498778 -0.717585 -0.461290 0.874121 0.706088 -1.389512 -0.868351 -0.325823 -0.474330 0.940633 0.691420 -1.282820 0.900363 -0.901444 0.191443 0.409891 -0.341365 -0.616324 -0.855737 0.096026 -1.475659 1.406808 0.536966 0.226026 1.643123 -1.173313 1.182017 0.539515 -0.223302 1.372232 -0.672702 -0.897272 -0.850015 -0.998421 0.512320 -0.198823 -0.333778 0.162490 
green -0.970904 0.181480 0.790600 1.082249 0.046115 0.026319 0.619633 0.327479 0.165161 -0.124051 -1.379134 0.275343 1.435663 0.467181 -0.484195 1.045764 -0.478115 0.161879 -0.672071 0.035569 1.191951 0.053136 -1.935944 0.613506 -0.748193 -0.211248 0.208615 -0.110204 -0.416547 1.888144 -0.894270 -0.252155 -0.236308 -0.329876 0.012033 0.075650 -0.914099 0.178926 0.656595 1.127382 -0.048982 -0.165928 -0.478697 -0.130226 -0.505486 0.376517 1.364225 0.725649 -0.590157 -1.564317 0.689564 -0.561330 0.093018 0.887614 -0.109694 -0.154821 0.013949 0.235952 -0.301775 -0.808614 -0.065683 0.031987 0.060231 -0.448083 -0.581619 -0.066332 0.263750 1.347165 0.803677 -0.589601 0.112742 -0.460504 -0.969989 0.106502 0.304259 1.722596 -1.334358 -0.402203 -0.026434 -0.967494 -0.656916 1.127325 0.427925 -0.477508 -0.107903 0.734076 0.025160 1.673927 -1.030366 0.563072 0.097392 0.751226 -0.434499 -0.043974 1.487319 -0.947687 0.740494 -1.055126 0.255710 -0.396060 
oil 0.122538 -0.246559 0.879399 0.788953 0.401665 -0.103977 -1.366020 -0.505570 -0.776652 1.236136 -0.521060 -0.557036 0.224185 -1.007717 0.684408 1.379669 0.044788 0.910866 0.846731 -1.072973 0.637810 -0.175989 -0.519569 0.669368 -0.080858 0.010319 -0.738853 0.825547 1.087431 0.097540 -0.975467 0.184756 -0.240637 1.380631 -0.669106 -0.891213 -0.258408 -0.315140 -1.026650 0.783558 -0.211836 0.711243 0.549026 -0.773140 -0.117345 0.580807 -0.075604 -0.679481 -0.869405 0.544992 0.663062 0.714523 0.973775 -0.580954 -0.055248 -1.736820 1.354988 1.445906 -0.654948 -0.921978 -0.201339 0.231261 -0.175250 0.102532 -0.049225 -0.254413 0.381120 -1.000486 -1.140899 0.918458 0.490120 -1.421908 -1.179628 -0.597422 -0.068348 0.366670 -0.299808 -0.646361 1.157784 -0.245952 0.638206 -0.052805 -0.506041 -0.165186 0.315975 -0.527588 -0.027453 0.320322 -0.281970 0.830031 0.419625 -0.995405 -0.115927 -0.831152 1.678856 0.933375 0.243479 0.046151 -0.375807 0.499275 
queen -0.692279 -0.620950 0.023478 -0.837008 0.514683 0.292493 -0.649732 -0.234819 -0.839189 -2.164393 0.957596 0.581324 -1.403867 1.229288 -1.421926 0.187192 0.810696 0.628344 0.712357 0.253493 -0.193049 1.257853 1.501633 -0.037552 -0.525229 1.441971 1.495592 1.730552 0.303119 1.317127 1.374027 -0.064430 0.114677 -0.086204 -0.641837 -1.024024 -0.383225 -0.925362 0.642048 -0.755828 0.521769 -0.735691 -0.841474 0.339086 0.525969 -0.831063 -0.360349 -1.656539 -0.088044 0.442319 -0.402652 -0.787998 -1.020155 -0.899645 0.722791 -0.007777 0.885809 0.085836 0.251049 0.570083 0.248776 -0.953875 0.743793 -0.670650 -0.108172 -0.620069 0.413535 0.012434 -0.396299 -1.360797 0.401408 -0.476103 -0.032348 -1.498177 0.868762 0.374867 -1.191679 1.596203 -0.385897 -1.490442 1.017039 -0.245056 0.196492 0.824727 0.526296 1.120307 -0.530893 0.683451 0.654853 -0.420394 -0.282814 -0.298791 -0.114212 -0.456002 0.104165 0.369662 0.374720 -0.009194 -0.406277 0.565141 
sun -0.608459 -0.317632 -0.424192 0.984492 -0.135409 -0.318097 -0.183558 0.072730 0.543449 0.626634 -0.247352 -0.087590 0.034957 0.659975 -0.236271 1.304329 -0.411394 -0.189992 -0.322765 -0.690899 -0.144162 -1.442272 0.961668 0.599574 -1.274052 -0.619165 -0.548040 1.233535 0.030377 -0.466681 0.891244 1.246282 0.627047 0.859188 1.304656 -0.125609 0.322861 -0.157216 -0.093259 0.516044 2.080567 1.335769 -0.001686 -0.138084 -1.567053 -0.900695 -0.206524 1.232331 -1.027558 -0.028114 -0.980006 0.552277 -0.124056 0.169407 0.569714 0.956588 -0.993326 0.169872 0.222467 1.621968 -0.031254 -0.156839 0.330357 -1.216419 -0.381195 -0.908878 -0.172022 -0.923440 -0.869355 0.043690 0.128271 -0.021280 -0.289006 0.785886 -0.090643 1.157413 -0.069977 -0.588060 -1.074652 0.427234 1.005879 -0.173913 1.507812 0.538403 1.439858 -0.332936 -0.671222 -0.322940 -0.741316 -0.128060 0.633512 1.128159 -0.065214 1.139591 0.456353 -0.400080 -0.136803 -0.435971 0.641561 -0.601724 
baseball -1.044549 0.435362 0.760354 0.257810 0.233072 0.506562 -0.061653 -1.067117 -0.859703 -0.628138 0.416871 1.978353 0.228371 0.523906 0.714824 0.295177 -0.263135 -1.214984 0.726122 0.195470 -0.067535 0.223191 1.160952 0.177454 -0.814242 -0.378646 0.121492 -0.720327 0.464538 -1.097908 -0.835925 -1.051486 0.325942 1.171066 -1.208716 0.006023 -0.010891 -0.004097 0.402608 -1.242164 0.179957 -1.196513 0.036899 0.366782 0.276780 0.583730 -0.057128 -0.461294 -0.090143 -0.529845 -0.005742 1.670520 0.382925 0.070076 -0.020675 -0.247246 -0.991695 0.730636 -0.119971 -0.700100 -0.961549 -0.800629 0.016711 -1.374275 0.704296 0.195230 0.667414 0.927429 1.101471 0.392333 -0.852203 0.428357 1.428214 0.520873 0.811364 0.131767 1.552236 0.160540 -0.797070 1.250466 1.032429 -0.741271 -0.145422 0.477096 -1.210587 0.246759 -0.910116 -0.513543 0.068612 -0.599364 0.065716 -0.555546 -1.762564 -1.596194 0.266335 -0.453341 0.427727 -0.203987 -0.461578 -0.860852 
mark 0.436456 1.360783 0.823941 0.202690 0.465474 -0.235569 1.248343 -0.999133 -0.083498 -0.028856 0.258965 -0.109111 -0.407250 0.526356 -0.002515 -0.060806 -0.118168 0.422974 -0.914694 0.808811 0.577741 0.486322 -0.300413 0.333197 0.175711 -0.275872 0.438647 -0.154528 -1.149528 -0.109758 0.645539 -1.435174 0.059951 1.132906 -0.053713 -1.154615 0.113045 -0.250563 1.487961 -0.647403 0.312276 -0.311572 -1.371168 0.977040 0.037611 0.576695 0.613364 -0.261721 0.459235 0.879687 -0.218376 -0.432729 1.263278 0.262179 0.351348 -0.147942 -0.044472 -0.934872 -0.005557 -0.473325 -1.055009 0.745686 -0.181676 -0.763140 -0.161698 0.650313 0.602228 -1.586278 -0.205159 1.148608 0.177445 0.338147 0.746973 -0.613049 0.044754 1.278863 0.413651 0.607852 -0.067503 0.583420 0.657630 0.984250 -0.395266 -0.236699 -0.279622 -0.791412 0.060491 -1.058326 0.608471 0.079949 0.615542 0.028072 -0.622364 -0.024181 -0.623906 -0.475492 0.343446 0.202952 -0.631432 0.039058 
moon -0.805105 0.362805 0.256350 0.947784 -0.460621 -1.242901 1.254949 -0.811471 0.256894 -0.470877 0.469365 0.230935 -0.221665 0.119014 0.493683 1.021118 0.004154 0.130775 -0.727849 -0.099916 0.103937 -0.169127 1.203683 1.582558 -1.169779 0.058054 -0.356232 1.546317 0.149681 -0.123760 0.497357 0.779615 1.237208 -0.337610 0.555278 0.072208 0.026740 0.710242 -0.179055 0.686683 0.311687 1.074403 0.501444 -1.391954 -0.754187 -0.808248 0.213586 0.957836 0.185418 0.006190 -0.619058 1.152056 0.223538 0.625971 0.273911 0.890637 -1.492791 0.306667 1.588889 1.789345 -0.783340 -0.809584 -0.539181 -0.603234 -0.186007 -0.286435 0.339304 -0.159143 -1.215873 -0.640881 1.385819 0.838169 -0.051050 1.391815 0.343337 0.928960 0.413213 -0.395626 -0.723484 -0.098841 1.077723 -0.035701 -0.086597 0.874903 0.843827 -0.047358 -0.546445 -0.526388 -0.128994 -0.188982 0.961980 0.315862 -0.053971 -0.003002 0.342123 0.674432 -0.798982 -0.022637 0.504820 0.575742 
ten -1.169633 0.025168 -0.424272 -0.803573 0.676357 -0.828751 -0.157418 -0.759679 -1.057952 -0.430745 -0.241031 0.195066 0.297285 -0.779926 -0.801868 -1.265262 0.756197 0.016697 -0.117628 0.047896 -0.431756 -0.685925 0.233969 0.467582 -0.733594 0.731421 -0.012337 -0.452867 -0.247196 -0.580304 -0.295845 0.161053 -0.343854 0.022167 1.431214 0.367891 -0.257340 1.045887 0.296491 -0.479954 0.580433 0.164891 0.218378 0.738352 -0.380281 -0.823944 0.088482 -0.653436 1.136208 0.338207 -0.435592 0.084319 1.461485 -0.024387 0.905411 -0.561370 0.812137 -0.680673 0.294751 -0.106121 0.364466 0.157523 -0.262696 -0.823256 -0.458510 0.424307 -0.438656 0.154813 -0.120703 -1.034270 -0.387506 -0.246746 -0.176831 -0.177937 -0.569731 -0.218350 -1.125443 -0.588094 -0.268593 0.175047 0.482166 0.355160 0.340966 -0.057171 0.939286 -0.255383 1.087628 -0.188975 -0.021373 0.413355 -0.308238 0.163623 0.541146 0.152981 -0.486245 -0.038475 -0.278119 -0.059378 -0.399454 -0.539997 
car 0.168198 -0.186479 -0.200772 1.080552 0.717662 -0.470993 -1.155615 0.263021 -0.948758 -0.006556 0.877798 0.468576 0.936632 -0.226219 -0.080436 -0.370527 -0.231627 -0.225602 -0.275754 0.918580 -1.382442 0.558139 -1.190875 -0.143812 -0.262904 -1.811350 -1.023390 1.146704 -0.362690 -0.023833 -1.232038 -0.639960 -0.554446 -0.253916 0.048525 -0.022823 0.079755 0.251800 0.774674 -0.496564 -0.052033 -0.845970 -0.529494 -0.436991 -0.406399 0.581393 -0.222795 0.826205 -0.952361 -0.314990 1.127512 0.081312 0.110259 0.935793 -0.649179 0.073373 1.097257 0.175900 -0.376827 -0.908611 0.293102 -0.423028 -0.211113 1.798114 0.279556 0.798439 1.733344 -0.198961 -1.556173 -1.360171 -0.034041 -0.789665 0.065005 -0.286657 -0.248802 0.976276 0.709701 0.819938 -0.489871 1.041541 0.868200 -0.157707 -0.333874 -1.005313 -0.481786 0.205023 -1.284883 -1.194487 -0.472155 -0.222962 0.541739 -0.121880 1.021463 -1.204789 -0.236893 -0.106664 -0.703721 -0.974886 -0.676855 -0.368160 
smith 0.211599 0.197285 1.167709 0.232029 -0.438109 -0.304061 -0.171090 0.421623 -0.298372 0.903110 1.160255 -0.387159 -0.402169 0.070591 0.338826 0.196203 0.801702 -0.730040 -0.529452 0.041860 0.446120 1.143963 0.123145 -0.420815 0.741925 0.414239 -0.022369 -0.646878 0.119928 -0.575622 -0.531362 1.366976 1.684650 -0.210813 1.404621 -0.526709 0.900479 0.154145 -0.433322 1.150516 1.239456 -0.431053 -0.321433 1.226576 0.676947 0.313394 0.900696 -0.505277 0.484416 -0.322873 0.567802 -0.944609 -0.081644 -0.253668 0.326781 0.128578 -0.454839 0.041133 1.554016 -0.002453 0.001425 0.167032 -0.470677 -0.788400 -0.332050 1.968280 -0.130520 -0.649994 0.456053 -0.611499 -1.811374 0.340302 -0.330688 -0.725521 -0.159490 0.106266 -0.453336 0.134654 -1.313547 -0.570165 0.437226 0.597398 -0.563105 -0.080845 -0.385920 -0.288034 -1.079149 0.281853 0.055979 -0.424976 0.910969 0.379953 -0.475434 0.056049 -1.270262 0.540510 1.350032 0.157409 -0.293559 -0.359434 
engine 0.738348 -0.720605 -0.002594 0.262801 -0.604296 -0.003751 -0.340556 -0.232836 -1.219613 0.561823 0.285352 -0.213234 0.960652 -0.336918 0.920342 0.606879 -0.658702 -0.202062 -1.105768 -0.262861 -0.353703 0.396881 -1.400059 -0.393427 0.159490 -1.020530 -1.223534 1.797544 -0.381552 -0.293442 -1.386671 1.360587 -0.897960 -1.089129 -0.196629 -0.042313 1.013064 0.292445 -0.798152 0.735381 -0.790940 -0.995586 -0.117196 -1.182070 0.145609 0.198518 0.817181 0.654700 -0.290009 -0.236225 -0.166042 1.054244 1.460999 0.346601 0.581760 -0.467487 -0.107140 0.533323 0.684698 -0.981528 -1.622779 0.098333 -0.168193 0.633205 0.204321 0.110089 0.528280 -0.492637 -0.972828 1.339644 0.636845 -0.917237 0.432967 -0.416319 -0.434821 0.045007 -0.077363 -0.115242 0.395410 1.849844 0.441401 0.805649 -0.280518 -0.613770 -1.133980 -0.067057 -1.250963 -1.631541 1.313746 0.074039 0.312599 1.595067 1.325041 0.045182 -0.308824 0.613302 0.655764 -0.472510 1.073859 0.186514 
ice 0.134442 0.044575 -2.008322 0.240799 0.003312 0.208771 0.407881 -0.750803 1.113849 -1.309195 -0.403119 0.734454 -0.684792 0.368082 1.291511 0.328248 0.497921 0.691558 -0.489260 -0.049817 1.285053 0.048064 -0.148347 0.309447 -0.839107 -0.225636 -0.074715 0.224252 1.504871 0.343004 -1.123605 1.226155 0.168880 0.940677 -0.520402 -0.251564 -0.958053 0.481165 0.349852 1.343922 -0.030106 -0.204692 -0.583731 0.297867 -0.658333 0.451371 0.719174 0.107021 0.168751 -0.195746 -0.126120 1.406171 0.663289 -0.398507 0.559709 0.791411 -0.317694 -0.012596 -0.120628 -1.044296 0.777318 -1.279874 -0.752154 0.720109 -0.262057 -0.639236 0.224880 1.106852 -0.206930 1.868241 0.248860 0.097393 0.682668 0.509143 -0.903794 1.465072 -1.027078 0.010699 -0.304010 1.021195 1.560074 -1.045681 -1.070048 0.042717 1.291710 0.174776 -0.009084 -0.998049 -0.255497 -1.234464 -0.883250 -0.218131 0.111984 0.423846 0.590396 1.736857 -0.042139 0.435667 -0.683432 -0.707475 
square 0.121209 -0.427016 0.112239 0.542636 0.664918 0.442780 0.024295 -0.637702 -0.984582 0.178886 -0.935643 0.874073 -1.553738 0.569191 0.317789 0.985786 0.212483 -0.077290 -0.591829 -1.031065 -0.112727 -0.892755 1.575244 -0.285091 0.396718 -0.300304 0.309665 0.174568 0.601326 0.476937 -0.147899 0.488011 0.294233 -0.376695 0.434031 0.472425 -1.079433 -0.784922 0.626537 0.867134 -0.559670 -0.200780 -0.475841 0.503245 -0.622073 -0.394467 0.352606 -0.879452 0.413566 -0.767500 1.123772 -0.056684 0.659869 0.895711 -0.484521 0.759225 -0.342670 -0.097433 -1.706227 0.332869 -0.780906 -0.559848 -1.060666 -0.671117 1.754982 -0.310183 0.471699 0.271296 0.206288 -1.046352 0.422528 1.111924 0.482367 -0.081875 0.120235 1.062678 -0.989624 0.305201 0.426558 -1.462643 -0.169766 0.185056 -0.169560 -0.610340 0.351574 1.415674 1.149405 0.007382 0.948191 0.363333 -0.939726 0.980749 0.889738 0.339578 0.628872 -0.507866 -0.406955 -0.097800 0.363229 0.122127 
gold 0.615320 0.446974 1.066396 1.737176 -0.386266 -0.677703 -0.785924 -1.159903 0.076333 0.142392 0.162847 0.188243 -0.750242 -0.390281 -0.426731 0.722848 -0.202738 -1.035087 -0.391934 0.472593 1.469049 -0.071773 -0.300251 -0.264446 -0.108433 0.675085 0.464621 0.132151 0.786269 0.489442 -0.010583 0.654806 -1.482854 -0.375251 0.376799 -0.297343 -0.855651 -1.292355 0.411476 -0.073385 0.626903 0.526713 0.505370 0.048183 -0.082649 0.735121 -0.283919 -0.504478 -0.625452 -0.836727 -0.821883 0.346266 -0.360377 -1.046516 1.079065 0.244977 0.759555 -1.062354 -0.871172 -0.532070 -0.236856 -0.711742 0.281742 -0.366205 -1.206884 0.074486 -0.286091 0.622044 0.472857 0.047863 0.237525 0.332387 -1.806055 -0.488037 1.385750 0.060243 0.204673 0.603421 0.120825 1.152163 1.205837 -0.570257 1.145419 -0.979466 -0.054661 0.165754 0.612983 0.231522 0.071266 0.540178 0.627685 0.300633 -0.639801 -0.110882 -0.207938 -0.326511 0.862383 -0.255394 0.192914 0.290914 
race 0.814283 0.008100 -0.368587 0.855110 -0.010797 -0.237136 -0.867187 0.672810 0.937638 -0.659466 0.930111 0.708961 1.539103 0.597745 -0.182860 -0.307518 1.048753 -1.342017 -0.344029 0.438551 -1.445646 0.652423 -0.415868 0.107724 -0.159629 -0.800062 0.140498 0.094706 0.085099 -0.477137 -0.472518 0.376564 0.044047 -0.313277 0.856061 -0.117744 -0.405051 0.452968 0.251041 -0.524443 0.403681 -1.113165 -1.190587 -0.669830 0.363178 0.186864 0.849575 -0.577228 -0.860653 0.306687 -0.150359 0.251208 0.852802 0.476106 -0.702799 -0.364545 1.152384 0.151919 0.628908 0.315343 0.012819 -0.244459 -0.421612 1.000750 -0.681999 1.294574 1.549300 0.376354 0.286581 -0.189784 0.990409 -0.434150 0.462791 0.563102 0.145890 1.317226 1.318170 0.615995 -0.132795 0.426392 -0.424306 -0.111186 0.659254 -0.484493 0.247343 1.386777 -0.322106 -0.364104 -0.637345 0.771197 0.157988 0.045769 -0.675369 -0.533592 -0.744218 -0.230293 -1.122505 -0.779065 -0.631437 0.711686 
paper 0.091782 -0.537544 0.017945 0.000090 -0.272236 -1.818497 0.685601 0.763025 -0.155074 1.540589 -0.752487 0.050186 -0.093502 0.376582 0.478436 0.973905 0.163245 -0.287083 0.338186 0.776554 0.396264 0.045207 0.336482 1.324487 -0.103178 -0.764589 -0.519228 0.121127 0.167548 -0.489106 0.322183 -0.867119 -0.196303 0.397698 2.461963 -1.479454 0.800120 -1.798283 0.269165 0.476472 0.091168 1.338160 0.504744 -1.543985 -0.108829 0.380318 -0.040763 -0.599043 -0.353831 -0.293694 1.035692 -1.324317 0.749500 -0.883426 -0.429691 -0.193357 -0.630333 0.039865 0.141870 -0.650330 0.190700 0.748619 -0.393389 0.475655 -0.543393 -0.091316 0.552548 0.028679 0.404397 0.543589 -0.229317 -0.253906 -0.075761 -1.650233 -0.534950 -0.071176 0.522104 -0.682201 -0.131481 0.508593 -0.447219 0.815865 -1.033048 -0.238442 -0.783042 -0.213581 1.177883 -0.548339 0.328478 -0.294383 -0.462360 -0.167624 0.089927 1.082582 -0.552576 0.065411 1.412370 -0.093854 0.283962 0.590215 
evolution -0.519210 -0.063280 -0.487363 -0.836975 0.658223 -1.062663 -0.125244 0.768035 1.690646 -0.150289 0.591264 -0.521713 0.961733 0.801487 -1.238948 0.523220 0.245364 -0.030930 0.115717 -0.150005 -0.847061 0.364062 0.225633 -0.344697 0.086739 -0.061412 -1.327855 -0.086030 0.222016 -1.308673 -0.501548 1.652198 0.203807 0.549967 -0.742348 0.256670 -0.332170 0.405790 0.231872 0.180610 -0.822230 0.574586 -0.805329 -0.272649 0.634797 -0.166508 2.074695 0.725212 0.638982 -0.668170 -0.684895 -0.731312 0.683246 -0.848238 -1.791218 -0.302641 -1.926038 0.441675 1.158546 -0.935560 -0.209232 -0.891952 -0.623516 -0.677549 -1.123474 1.328720 0.227730 0.112822 0.958917 0.696282 1.371175 -0.162672 -0.340494 0.638776 -1.621236 -0.308698 0.043383 -0.376430 -0.977815 0.208734 -0.548732 1.002639 1.023250 -0.573858 -0.301067 0.865688 1.128079 -1.046235 0.094427 -1.781319 0.310804 0.262129 -0.477884 0.964141 -1.421223 -1.985532 -0.471243 1.959093 -0.469634 0.259113 
round 0.800784 0.617193 -1.221566 0.791249 0.844684 0.358915 -0.052619 -1.123627 -0.562199 0.007197 -0.210060 0.298492 -1.042356 0.016660 0.544207 -0.144592 0.474134 0.066833 -0.692749 -0.480565 -0.246916 -0.523132 1.282301 0.405106 -0.307759 -0.794049 1.010572 -0.572699 -0.134913 1.211873 -1.946184 -0.245127 -0.052869 -0.330419 1.439184 1.243518 -0.515830 0.520645 0.968303 0.957569 0.668328 -0.044254 0.562210 -0.494077 0.847912 0.089146 0.607215 1.081773 -0.085746 -1.129413 -0.531633 -0.051492 0.943607 0.667140 -0.259442 0.422757 0.638191 0.403325 0.635321 0.311408 1.217700 -0.598672 -0.528766 0.224447 -0.392709 -1.193583 -1.219456 0.567022 1.355625 0.229546 -0.131913 1.091292 0.216741 -1.960731 -0.138895 1.448831 0.897784 0.885378 -0.868171 1.055516 0.343531 0.233975 -0.931366 0.194640 -0.884713 -0.007833 0.410680 0.580345 0.484058 0.113948 0.066082 -0.147010 -0.013636 -0.394003 0.624214 -0.202532 -0.826195 0.461533 0.467341 1.121242 
bridge -0.346656 -0.566104 -0.417129 -0.211335 -0.246979 0.389272 -0.066844 0.314152 -0.744512 -0.199342 0.167589 0.397238 -0.032813 -0.015198 -0.098195 -0.294618 1.034383 0.399245 -0.680994 0.462507 -0.322476 0.047840 1.411750 0.521628 -0.140658 -0.627074 -1.191317 1.611731 0.229903 0.512779 -1.226193 -1.252435 -0.708566 -1.233506 -0.327449 -0.640332 -0.239369 -0.847728 0.084149 0.523457 -0.038466 0.760799 0.883744 0.750823 -0.241342 -0.935287 -0.235626 0.974456 -0.401240 -1.071610 0.242044 0.906642 0.149081 1.073815 -1.205135 -0.708858 0.771368 -0.620556 0.498253 -1.315669 -1.093716 0.296311 -0.186326 -0.777209 1.719265 0.498362 0.093939 -0.182812 -0.488610 0.336900 -0.612210 0.236893 0.632371 -0.316868 0.109629 -0.426986 -1.827479 1.674059 0.588619 -0.423875 0.395307 -0.208688 0.483189 0.063602 0.565586 0.623508 0.372888 0.618095 0.581876 -0.351706 0.465744 0.334802 -0.226227 1.212441 0.732090 1.219215 0.018672 0.284172 -0.493913 -0.242984 
heart -0.065883 0.537646 -1.262942 0.018804 -0.260348 -1.014758 0.221915 0.650511 0.965343 0.250182 -0.950509 0.580289 -0.917521 0.382751 0.301334 0.832940 0.130188 2.163225 -0.057611 0.488144 -0.897357 -0.614701 0.256400 -0.745201 -0.264815 0.890827 0.433893 1.431998 -0.458660 0.613704 -0.377237 0.935722 -0.740341 0.307338 0.690041 0.240308 0.163103 0.719817 1.144237 0.524584 -0.206810 0.915444 0.789637 -0.708553 -0.228906 0.553552 0.220826 -0.859617 -0.275383 0.242715 -0.932562 1.028616 0.744086 -0.605696 0.265930 -1.144417 0.925001 -0.318003 -0.425580 -0.527306 0.697463 -1.109806 0.322867 -0.806527 -0.204291 1.092416 0.006597 0.329173 0.828023 -0.360143 -0.261570 0.447576 -0.089518 0.552908 -0.019873 -0.474758 1.023981 0.084574 -0.555629 -1.116588 -0.421338 -0.414584 -0.153495 0.103516 0.050040 0.337559 0.397784 0.307078 -0.846773 0.068615 2.584629 0.548519 0.078087 0.358810 -0.562849 0.528582 -1.298786 0.158276 0.715429 0.935833 
tree 0.768120 -0.142308 -0.891914 -0.309426 -0.071115 -0.576539 -0.361671 -0.243517 0.347939 -1.385904 -0.932822 0.446975 -0.336925 -0.613220 -1.032492 1.814491 -1.093292 0.012893 -0.693796 -1.035780 -0.264238 0.541368 0.345879 1.042376 0.059912 0.687786 0.496450 1.731397 -0.385518 0.398504 0.120979 0.271485 -0.002377 1.162485 -0.369136 0.453010 0.428482 0.604446 0.408747 0.171988 -0.254593 -0.230944 -0.647105 -0.334829 -1.052939 0.341204 -0.397977 0.805372 0.294555 -2.373618 -0.459816 -0.321178 0.724649 -1.039365 -0.180731 -0.296036 -0.002141 0.032452 -0.069189 -0.758446 0.263946 -0.099557 -0.216269 0.220025 -0.495289 0.153466 0.864073 -0.210011 -1.663373 0.076635 -1.304340 0.023440 -0.800462 0.406908 -0.872259 0.652328 0.837594 -0.080685 -0.855239 -0.863683 0.445609 0.844875 0.699043 -1.000242 0.520119 -0.943121 1.182517 0.108329 0.133933 -1.216657 0.059050 1.158937 0.286597 -0.627650 0.438194 -1.492778 1.283573 0.282630 -1.025647 -0.038887 
cold 0.260163 0.200329 -0.523349 0.042855 0.516542 -0.591132 -0.531499 0.271825 0.087105 -0.302675 0.207645 -0.011791 0.095538 -0.191333 0.375590 0.706801 -1.006195 0.347683 -0.538133 -0.168648 1.035787 0.490487 -0.028187 -1.072840 0.727789 -0.222719 -0.834251 -0.054652 2.172947 0.745296 -0.821460 1.908456 0.540436 0.661392 0.277679 -0.320760 0.728741 1.147217 -0.644473 0.403356 -0.129989 0.694789 -1.576705 -0.172736 0.128654 -1.179899 -0.374982 0.232907 -0.340673 0.615132 -1.009135 0.619258 0.126624 -0.275564 0.319116 0.583173 0.074496 0.428355 -1.251618 -0.313240 1.377198 -1.106141 -0.180916 0.401793 -0.888811 -0.364503 -0.010837 0.952094 -0.176652 1.666418 0.006560 -1.259650 -0.205760 0.128921 -0.917232 0.040028 -0.547594 -0.229197 -0.514544 0.344382 -0.039249 0.477161 -0.434080 -1.117962 -0.138539 -0.021165 -1.254837 0.128605 0.211650 -0.127890 0.122046 0.297652 -0.297878 0.709161 0.697205 -0.050251 -0.148822 -0.684371 -0.404752 0.167180 
plan -0.342759 0.158733 0.593421 0.473738 0.602779 -0.585686 0.133099 -0.000616 -0.157747 0.690558 -1.185396 0.327116 -0.517441 -1.354903 -0.957935 1.105867 0.702688 0.480981 0.581631 0.228204 0.471212 1.285429 0.814926 -0.880252 0.585914 0.434903 0.310427 -0.003308 0.603365 0.311444 -0.150075 0.980800 -0.954021 -0.833467 0.867581 0.117707 -0.092281 1.152533 0.048218 -0.711614 -0.607554 -0.346981 0.334033 -1.046838 1.644495 -1.422058 -0.509537 0.132368 -0.651464 0.296860 0.162335 0.377824 -0.179804 0.485966 0.398605 0.431603 0.976261 0.674723 1.188794 1.112458 0.401542 1.219789 0.407441 -0.335459 0.741787 0.239818 -0.301537 0.035667 -0.391582 -1.348613 -0.340871 -0.405462 -0.243228 0.377440 -1.263629 0.573085 -0.377468 0.195955 -0.286160 0.183951 -0.859538 -0.215397 0.148686 -0.876746 -0.638381 -0.157982 -1.193615 0.018281 0.015900 1.124408 -1.060673 0.279576 -1.013019 0.148596 0.016360 -0.576208 -1.236508 1.331809 -1.553776 0.755633 
application -0.060702 -0.952625 0.001692 0.095159 -0.002485 -0.834605 -0.274110 1.011114 0.133975 2.333494 -0.945893 -0.462354 0.489572 -0.010081 -0.273024 0.112936 -0.173090 0.191622 0.286936 0.488725 -0.707272 -0.653226 -0.819262 -0.683475 -0.578125 -1.346621 -0.804109 -0.178720 -0.887594 0.234529 -0.470991 0.855725 -1.118021 -0.211712 0.369953 0.109761 0.260674 -0.494388 0.058215 0.811884 -0.053255 -0.013227 0.163854 -1.445758 -0.942013 0.727863 0.870506 1.430017 1.803225 -0.459991 0.350477 -0.272287 0.179867 -1.301757 0.032455 -0.034158 -1.032319 1.001865 0.921272 -1.389924 -0.955681 0.843555 -0.664761 -0.548005 1.085376 0.356814 0.199046 -0.472095 -0.022241 1.108749 0.989054 -0.291022 -0.519742 -0.928098 -1.749714 -0.543298 1.671089 -0.087327 0.965189 -0.026874 -0.182867 0.588477 0.790979 0.790326 0.554065 -0.895212 0.135868 -0.882071 0.045387 -1.503339 -0.739621 0.628231 0.790705 0.091580 -0.214371 -1.314490 0.041976 0.166786 -0.543954 0.973435 
mexico 0.573188 0.466527 -0.102768 -0.152985 1.778688 0.978085 -0.565942 -0.251117 -0.178433 1.593916 0.733922 2.304020 -0.478613 -0.179818 0.000407 0.725680 0.715201 -0.806444 -0.919818 -0.578553 -0.510765 0.344702 0.356639 0.196680 0.556266 -0.087587 -0.575593 0.417312 0.889656 0.798677 -0.759941 0.119803 0.466784 -0.727943 -1.054590 -0.186666 -0.264201 0.143826 0.083454 -0.738463 0.551520 0.221377 0.179551 -1.080067 0.276379 -0.421315 -1.277256 -0.635003 -0.471336 -1.224558 -1.011725 -0.746926 0.018409 -0.619094 0.405787 -0.274314 0.766100 -1.121602 0.148920 0.073297 -0.973368 1.367922 -1.329177 0.763503 -0.852946 -0.658998 1.699390 0.252123 -0.468065 0.414249 1.292081 -0.855277 -0.175575 1.006772 0.376772 -0.485118 -0.255274 -0.146145 0.236370 -1.006129 -0.144070 -0.469448 1.001786 0.790466 -0.127383 -0.751765 1.262406 1.416144 -0.148111 -0.615056 0.109581 -0.764631 -0.640001 -0.733851 0.934049 0.734435 0.485756 -0.188149 0.915437 -0.564031 
positive 0.107072 0.175332 0.912662 0.195056 1.534687 -0.354842 -0.640903 0.515784 0.415492 0.874960 -0.974822 0.058318 0.281012 1.178533 -0.090498 0.285346 0.135951 -0.429948 0.854471 0.246189 -1.758902 0.093376 -0.385347 0.745232 1.014757 -0.843358 -0.434231 0.273956 0.511191 0.328417 -0.927848 2.519590 0.255130 0.590939 -0.707327 1.156659 -0.479036 -1.002149 0.477712 0.697129 0.100820 0.950449 0.813586 -1.149009 -0.290458 0.324339 0.824637 -0.059077 1.090434 0.067290 1.695676 -0.548949 1.754064 -0.314063 0.083255 0.585252 -1.039486 0.811952 -0.649432 -0.962568 -0.322445 -1.553433 1.151847 -0.614372 0.556528 -0.658595 -0.196227 -0.566489 0.783464 0.263962 0.898592 -1.272887 0.445819 -0.529520 -0.608230 0.299894 -0.201583 -0.339845 -0.834084 -0.040291 -1.302774 -0.458383 0.796371 -1.250291 -0.057910 0.017287 -0.056262 -1.283227 0.842823 0.026166 0.626506 0.652980 -0.889463 0.889593 -1.109791 -0.123407 0.285896 0.793385 -0.281156 1.295946 
winter 0.140114 -0.003910 0.399414 0.635913 0.254148 -0.109530 0.190994 -0.436839 0.596512 -1.612774 0.272891 1.061413 -2.073858 0.535008 1.086680 0.951480 -0.376318 0.185221 -1.390058 -1.052201 0.441364 0.200935 1.045464 0.278222 0.357814 -0.962385 0.376317 -0.116964 1.539661 -0.262858 -1.351257 0.531798 1.334599 1.617635 1.127350 -0.348335 0.521931 0.755167 -0.659325 0.157554 0.189330 -0.042759 -0.310962 0.810239 -0.795844 -1.605716 -0.472960 0.815072 -0.442197 -0.125851 -1.561270 0.470229 0.124779 -0.358151 0.668200 -0.147432 0.748624 0.195797 -1.364270 0.778237 0.259456 -0.480637 0.069774 -0.037728 -0.657771 -0.882392 0.373121 0.479262 -0.256111 -0.089955 -0.194911 -0.580192 0.612436 -0.016578 -0.527807 1.116972 -0.862390 0.571983 -0.500633 -0.413533 0.553871 -0.623137 -0.519332 -0.438065 0.559998 -0.547078 0.419212 0.353432 -0.235882 1.024203 -0.529813 -1.006357 -0.863025 0.161894 0.841021 0.481848 0.825509 -0.882710 -1.126645 -0.126016 
deep 0.109748 -0.322959 0.471584 -0.072261 0.523502 0.148305 -0.454119 -0.533400 -0.145091 -0.272541 -1.172096 -0.703342 0.578451 0.162169 0.739063 -0.023491 -0.342968 -1.045164 0.252881 -0.288580 0.642327 -0.029077 -0.411837 0.631544 -1.023352 0.196893 -1.007632 0.241304 0.564004 0.956059 -0.470548 -0.306449 -0.459620 0.069787 -0.475652 0.322269 -0.422152 -0.011399 -0.582695 0.446923 -0.524332 -0.824407 -0.277202 -1.427838 -0.012507 -0.485337 0.553666 -0.234527 -0.329267 -0.647960 -0.610324 0.785330 -0.661844 -1.168234 -0.328023 0.346784 0.633333 -0.660784 -0.833926 -0.027808 1.388048 -0.833102 -0.641558 -0.199036 -0.547701 0.161211 0.493628 0.207418 -0.161762 0.115776 0.290317 -0.181264 -0.471208 0.379964 -1.666354 -0.362740 -0.329252 0.408909 -0.711674 0.095230 -0.719300 -0.031073 -0.238303 -0.950638 0.718575 -0.740003 -0.541596 0.767436 0.006409 -0.701159 1.346229 1.067678 -0.771297 1.317526 1.177990 0.252730 -0.454791 -0.371496 -0.232732 0.012527 
student -0.461019 -0.047367 0.554648 -0.091304 -0.623417 -0.795586 -0.086799 -0.298232 0.466068 0.518036 -0.176203 0.015726 -0.206706 -0.392627 0.895100 0.376307 -1.001210 0.263592 -0.012510 0.431920 -0.813421 -0.164925 0.775263 -1.002128 -0.306878 -2.129032 -1.677875 0.032264 -0.424549 0.207378 0.288682 -0.538528 -0.293152 0.537680 0.672886 -0.358079 0.429092 0.932494 -0.986561 -0.954673 -0.821704 0.232177 0.407340 -0.321213 0.334455 0.189807 -0.382598 0.416153 0.906079 0.230509 0.502491 -0.851733 -1.211482 -0.229712 0.360132 1.017502 -0.772790 -1.292864 -0.442272 0.449449 0.235840 -0.411098 0.351644 -1.696847 1.009922 0.350290 0.604480 0.092283 1.665145 -1.142351 -0.910920 0.064676 -0.052847 -0.430857 -1.024900 -0.571477 0.664857 -1.135007 0.265499 -0.101890 -0.154309 -0.311381 -0.211060 -0.124545 1.041976 0.256819 0.059737 -1.754152 0.145280 -0.058073 0.282392 -1.680253 0.811942 1.163754 -0.846348 -1.355838 0.008712 0.522359 0.666525 -0.131652 
boy -0.927238 1.781803 -0.012847 -0.681332 0.186422 0.571933 -0.051604 -0.465274 -0.460731 -0.448511 0.909645 -0.339246 -0.542048 -0.700485 0.333514 0.981909 -1.863436 1.181547 -0.219414 1.903312 -1.313368 -0.406148 -1.134132 0.567683 -0.413631 0.230394 -0.462943 0.063628 0.583557 -0.645430 0.352557 -0.489077 -1.348688 -0.539359 0.644534 1.028739 0.333621 0.030088 -0.098600 -0.093245 0.337703 0.225846 0.509610 0.182343 0.787549 0.371381 1.260238 -0.871183 -0.647534 0.433827 0.565090 0.480903 0.111249 0.024113 0.673108 0.785663 0.007509 -1.867368 0.691786 -0.127479 0.144605 0.825456 0.366369 -1.374821 -0.253267 -0.007472 0.160729 -0.147758 0.105473 -0.547258 0.667886 -0.371092 1.555488 -0.409968 0.327766 0.904893 -0.744047 -0.320399 -1.192111 -0.463743 -0.443273 -1.132744 -0.320238 0.145623 -0.610158 0.633491 -0.686122 0.393446 0.322036 0.029293 0.508386 0.312845 0.347933 -0.155295 0.382964 0.828202 1.074322 0.405702 0.487997 -1.714940 
guitar 0.223756 0.117600 0.685829 1.244376 -0.972904 0.078373 -0.091447 0.214841 0.553456 0.082433 0.706945 0.860762 0.741874 -0.709792 0.229416 -1.135187 -0.051722 0.576329 -0.296816 -0.599365 -0.857797 -0.996771 -0.304680 0.349550 -0.807516 -0.008699 -0.283100 0.520109 -0.243815 0.530573 -1.159238 -2.218425 0.231633 -1.590174 -0.427704 -0.433285 0.180909 0.394932 0.905735 1.037488 1.833213 0.468474 -0.376521 -0.385506 -0.447410 0.578768 1.470218 -1.221434 -1.128178 -0.559045 -0.368333 -0.255467 -1.352460 0.556015 1.241037 -0.079153 -1.135034 -0.827841 0.087382 -1.485456 -0.933206 0.238041 0.499417 -0.230225 -0.187010 -0.451839 0.276428 -0.377190 -0.059754 -0.175588 -0.444414 1.588187 -0.038379 -0.151678 -1.891979 -0.647816 0.339119 0.530097 -1.176810 -1.317750 0.924641 -0.747550 -1.304641 1.172167 0.749457 0.222068 -0.199390 -0.816291 1.962124 -1.497712 0.776818 1.026974 -0.676056 0.129622 -1.006048 1.865537 0.762607 -0.005270 0.124264 -0.696254 
horse 0.312116 0.002271 -1.196198 -0.391804 0.552947 0.200521 -0.773102 -0.084372 0.421693 -0.668086 0.748378 0.309079 0.116196 -0.413133 -0.470033 -0.362262 0.108239 -1.358374 -1.173471 -0.780308 0.321626 -0.482428 -1.108559 0.961332 -1.215736 0.411415 0.267273 1.329497 0.869371 -0.181503 -0.362879 0.714294 0.369780 -0.390012 0.020923 -0.386034 0.442503 0.193973 -0.128106 -0.928854 -1.501761 -0.143878 0.532814 -0.405950 0.402755 0.607324 1.552687 0.156046 -0.996882 -0.202957 -0.027011 0.499047 1.026263 -0.162156 -0.723236 0.200315 0.792482 -1.814906 0.532077 -1.150907 0.304269 0.703739 0.328217 -0.466354 -0.615510 0.251843 -0.051461 -1.832227 0.382518 -1.005000 0.473656 0.531002 -0.777019 -0.651008 0.511349 1.411960 -0.197338 -0.774707 0.093093 -0.943993 -0.431810 -0.091618 -0.177119 -1.411439 0.315719 0.668921 -0.429600 -0.723983 -0.717941 0.591727 -0.239455 -0.469229 -2.000380 -0.266835 0.427293 0.462708 -0.872368 -1.032815 0.642247 0.486619 
hill 0.956367 -1.298410 -0.141040 0.181854 0.322456 1.059931 1.009231 0.297192 -0.261107 -0.571929 0.228932 0.511981 -0.080501 0.684175 0.156218 0.882550 0.601532 -0.074283 -0.696270 -0.181945 1.276779 0.321525 1.091380 0.535905 -0.432709 -0.641270 1.234326 0.277343 0.139460 -0.519377 -0.286635 -1.029646 -0.168830 0.695198 0.416129 -0.376777 0.144551 0.224435 0.737700 0.378019 0.788548 -0.426589 -0.370536 0.326563 0.046954 1.667386 -0.628788 0.185335 -0.097649 -0.933663 -0.190380 0.465729 -0.736653 0.592927 0.241051 -0.272455 0.894460 -1.701770 -0.258265 0.494199 -0.898742 0.930198 -0.129959 -1.120714 0.808714 1.241580 0.956180 0.226489 -0.440443 -1.296287 -0.251110 0.755238 -0.438835 0.448769 -0.295324 0.727794 0.319122 -0.081504 -0.308562 -0.003260 0.690057 0.621880 0.222495 -1.935771 -0.223148 0.189128 -0.373491 1.001954 0.429650 -0.211103 -0.591485 -0.220507 -0.006068 1.903930 -0.789405 0.004107 -1.570341 0.069276 -0.877636 -0.052386 
journal -0.361579 -0.456515 -0.054556 -0.016309 -0.123568 -1.622116 1.006359 0.903933 0.229105 0.686420 -0.656831 -0.205423 -0.869727 1.306767 -0.101863 0.979677 0.084917 0.229978 1.133387 0.438537 -0.002151 1.327875 0.549999 0.295199 0.167836 -1.317543 -1.293146 0.234430 0.557338 -0.467110 0.573782 -0.060233 0.323157 0.334338 1.337387 -0.671365 1.175055 0.397656 -0.350335 -0.508994 0.016285 0.191462 0.444376 -0.627152 0.060559 0.166788 0.633792 0.423252 0.116728 -0.006650 -0.550664 -0.354828 -0.069459 -0.186729 -0.591399 0.171211 -0.766934 -0.228088 0.400774 0.018216 -1.000985 0.037178 0.068763 0.010498 -0.969756 0.535860 0.114030 -0.431649 0.157409 -0.052701 -0.419865 -1.371952 -0.568942 -0.062429 -0.798850 -1.294549 0.106677 0.111292 -0.740451 -1.152947 -0.830301 0.862757 -0.343602 0.285332 -0.384955 0.559082 0.308474 -0.418614 -0.673530 0.218619 -0.478499 -0.136942 0.391086 0.931449 -0.830723 -0.245930 0.440100 -0.138042 0.756460 -0.389140 
mountain 0.493986 0.050374 -0.061577 0.239205 0.173478 1.889977 -0.219987 -1.438735 0.021578 -1.064478 0.029971 -0.676200 -1.185958 0.380110 0.020309 -0.059795 -1.039800 -0.014633 -0.936567 -1.751320 0.946592 0.404664 1.073303 0.810960 -0.824843 -0.264338 -0.153415 -1.114534 1.241466 0.833418 -0.614705 -0.719281 0.365615 0.759768 -0.011129 -1.291031 0.056675 0.007210 0.768036 0.711184 -0.955716 0.525083 -1.418818 0.077777 -0.910483 0.688234 0.205638 -0.260795 -0.887628 -1.580433 -1.509785 0.738366 -0.493302 0.538061 -0.183190 -0.010621 0.315300 -0.116462 -0.200665 0.041368 -0.489839 0.163136 0.170037 -0.162823 -0.166867 0.086894 0.515830 -0.129006 -0.435260 -0.087922 -0.735282 -0.329157 -0.125773 1.057166 -0.675314 -0.569900 -1.358852 -0.575677 -0.558058 -0.171423 0.532116 -0.033587 1.076311 -0.138571 -0.026167 0.852953 0.138051 0.302363 -0.598041 0.131126 -0.973869 0.177310 -0.606967 -0.264964 1.049337 -0.126496 -0.225235 0.677398 -0.429319 -0.987096 
fast 0.912601 -0.883894 0.289496 -0.529186 0.209622 0.064750 -0.255580 0.146825 0.313490 0.062120 -0.614658 0.516382 -0.751632 -0.035038 0.714373 -0.225390 1.733690 0.839235 -0.453042 -0.677287 0.224126 -0.835948 -1.503187 0.766388 0.593364 0.418006 -0.697307 0.736631 -0.851950 -0.736966 -0.156415 -0.152055 -0.455681 0.206389 0.107897 0.473613 -0.301621 0.845372 0.752176 1.383270 -0.929365 -0.294547 0.514164 -0.915105 -0.621374 0.060929 -0.177391 0.762186 1.281706 0.024312 0.272194 0.386701 0.186408 0.708158 -0.253417 0.296623 -0.352733 0.937075 -0.256404 -0.643004 0.456231 0.508392 0.263540 -0.514831 -0.005251 0.471872 0.234263 -0.617252 -0.930164 0.440861 0.526272 -0.144973 -0.705707 -0.828908 -1.841286 0.973439 0.978288 0.540326 -0.328437 0.124455 -0.289832 -0.123300 -1.361436 -0.160513 -1.162834 -0.246799 0.401462 -0.462660 0.358650 -0.800371 -0.157582 -0.220491 0.079456 -0.374790 0.368053 1.238069 -1.849367 -0.545918 -0.451292 -0.910337 
hot 0.129363 0.208778 0.996993 -0.159549 0.092567 -0.533114 -0.765321 0.028477 0.430815 -0.306016 -0.247648 0.356668 0.419666 -0.601278 1.260480 -0.138555 -0.683376 0.563922 -0.450530 -1.323725 0.774474 -0.528720 -0.918500 0.587982 0.269415 0.691927 -2.045129 0.225068 2.068864 1.326258 -1.522430 0.921587 0.826960 0.664457 0.196194 0.191562 1.441129 -0.053447 0.148159 1.479519 -0.186280 1.332507 -1.041024 -1.036350 -0.719098 -0.139629 -0.358784 0.146014 -1.491487 0.986133 -0.396255 1.123500 0.175038 0.036462 0.887923 0.325380 -0.602395 -0.780843 -1.441176 0.208604 0.352093 -1.738714 -0.889284 0.125948 -1.054076 -0.618113 -0.000846 0.628408 -0.201571 1.052349 -0.538110 -0.244957 -0.064637 -0.701527 -1.369920 0.178786 -0.372822 -0.567041 -0.661465 0.497764 1.647803 -0.018825 0.049777 -1.413423 -1.073215 0.175964 -1.763448 0.199102 -0.403743 -0.216126 0.079205 -0.053854 0.060726 -0.115754 0.919497 0.949195 0.182441 -0.735257 0.786160 0.297310 
dictionary -0.381422 -0.845224 0.303024 -0.684416 -0.087608 -0.304237 1.344756 -0.717963 0.111232 -0.022446 -0.070478 -1.097000 -0.334540 -1.022741 -0.155703 1.008595 0.006969 -1.553013 -0.544536 1.686573 -0.493220 -0.142197 -1.464006 0.334897 0.392807 -0.588593 -0.128535 0.626361 -0.506757 0.351610 0.327046 0.861098 1.180323 -0.377907 1.403344 -1.306651 1.060706 0.331180 0.190820 -0.081131 -0.290824 -0.647802 -0.062948 0.088183 -0.881687 -0.404478 0.299751 1.109481 1.270180 -1.032762 0.954520 0.097714 0.079155 -0.455627 -0.404771 -0.489095 -0.035672 0.504036 0.316206 -0.240449 -1.073343 -0.675190 -0.925742 -0.215628 -0.705692 1.632032 -0.532198 -1.077491 -0.359684 0.604086 -1.271660 -0.061463 -0.497016 -0.998589 -0.477514 -0.469627 0.261649 1.529978 0.281547 -0.936273 -0.284633 1.012843 0.179846 0.332269 0.151356 1.579301 0.516733 -0.659993 0.992605 0.556808 0.234814 -0.034864 0.277382 0.856870 -0.497857 -0.389569 0.259466 -0.759834 0.536040 0.245710 
